
\data\
ngram 1=3197
ngram 2=25201

\1-grams:
-0.8951004	</s>
-99	<s>	-1.027933
-1.597027	a	-0.5763301
-5.092851	aa	-0.1864393
-3.223753	aby	-0.5645381
-3.200891	abych	-0.8543799
-4.013794	abychom	-0.5357007
-3.837707	abyste	-0.3986165
-3.168706	aha	-0.5758873
-5.092851	akci	-0.1715506
-3.888859	akorát	-0.2807072
-5.092851	albert	-0.1885938
-2.736961	ale	-0.271293
-5.092851	alena	-0.1886043
-4.61582	alespoň	-0.2905884
-5.092851	alžbětína	-0.1877094
-4.791889	amsterdam	-0.1285455
-5.092851	anastasová	-0.1840084
-3.86253	ani	-0.215264
-1.894605	ano	-0.855794
-2.911143	asi	-0.2232035
-5.092851	autem	-0.1827416
-5.092851	auto	-0.185614
-3.695042	autobus	-0.1539252
-5.092851	autobusem	-0.1294624
-5.092851	autobusová	-0.1886043
-4.490893	autobusové	-0.263936
-4.314813	autobusy	-0.1696098
-5.092851	automaticky	-0.1294624
-4.791889	aš	-0.1861115
-4.18988	aše	-0.1261609
-4.61582	aši	-0.12832
-4.61582	ať	-0.2941208
-2.557693	až	-0.6672475
-4.490893	babylon	-0.1969815
-4.791889	babylonu	-0.1704956
-4.791889	balíky	-0.1885131
-5.092851	barbarum	-0.1294624
-5.092851	bartičková	-0.1813891
-5.092851	bartíčková	-0.1886043
-4.61582	bayerische	-0.1292655
-5.092851	baťková	-0.1294624
-5.092851	bb	-0.1294624
-5.092851	bednář	-0.1813891
-5.092851	bedřichová	-0.1813891
-4.791889	benediktová	-0.3649021
-5.092851	beneš	-0.1840084
-5.092851	benešova	-0.1294624
-5.092851	benešová	-0.1813891
-5.092851	benešově	-0.1864428
-4.791889	beranová	-0.361405
-3.979033	bere	-0.2293274
-5.092851	berecký	-0.1885833
-5.092851	berková	-0.1813891
-4.490893	beroun	-0.1091825
-3.86253	berouna	-0.1400349
-5.092851	berounem	-0.1827416
-4.13873	berouně	-0.3065977
-5.092851	beránek	-0.1294624
-3.678009	bez	-0.7778213
-4.39399	bezdružic	-0.2407875
-5.092851	bezdružice	-0.1774826
-5.092851	bezděková	-0.1840084
-4.791889	bezdězem	-0.1284327
-4.791889	bezdůvodně	-0.1293137
-5.092851	beze	-0.1886043
-5.092851	bezeliová	-0.1840084
-5.092851	bezplatné	-0.1886008
-5.092851	bezpříplatkové	-0.1885587
-4.39399	bezvadné	-0.5217716
-3.79195	bezvadný	-0.4506679
-4.18988	bečva	-0.1480691
-5.092851	bečvu	-0.1294624
-4.61582	bečvář	-0.2953805
-5.092851	biflerová	-0.1885973
-4.314813	blahoust	-0.1706163
-5.092851	blahoustech	-0.1876145
-4.490893	blahousty	-0.1751311
-5.092851	blansko	-0.1885166
-4.13873	blatna	-0.199449
-5.092851	blatnic	-0.1883658
-4.314813	blatno	-0.1576478
-4.18988	blatnou	-0.4962715
-4.791889	blatná	-0.1791519
-4.247869	blatné	-0.09170309
-4.61582	blatně	-0.299489
-5.092851	blaubrová	-0.1840084
-5.092851	blbnu	-0.1868408
-5.092851	blbost	-0.1870308
-4.791889	blbý	-0.1857728
-5.092851	bližšího	-0.1294624
-3.439772	blovic	-0.4025143
-4.13873	blovice	-0.249028
-4.18988	blovicích	-0.1895291
-5.092851	bláhová	-0.1882465
-5.092851	blízký	-0.1885938
-5.092851	blíž	-0.1886043
-5.092851	bohatě	-0.1294624
-4.247869	bohumína	-0.1639518
-3.79195	bohužel	-0.2359448
-4.61582	boleslav	-0.1777235
-4.61582	boleslavi	-0.1752685
-4.490893	bor	-0.2071574
-4.791889	borku	-0.3683817
-4.18988	boru	-0.1920541
-5.092851	bradová	-0.1294624
-5.092851	brandová	-0.1882465
-5.092851	bratislava	-0.1294624
-4.39399	bratislavy	-0.1896004
-4.39399	bratislavě	-0.1587249
-5.092851	bravníková	-0.1886008
-5.092851	brejcha	-0.1840084
-3.229662	brna	-0.2934659
-3.814226	brno	-0.4668408
-3.524782	brně	-0.4362106
-5.092851	brněnský	-0.1852361
-4.791889	brněnským	-0.3686167
-4.39399	brod	-0.1680874
-4.490893	brodu	-0.1722392
-5.092851	brotánek	-0.1840084
-5.092851	brous	-0.1848862
-4.791889	brožová	-0.3640243
-4.490893	bruntál	-0.1906822
-4.247869	bruntálu	-0.1436545
-3.200891	brzo	-0.743194
-3.946849	brzy	-0.4142347
-4.791889	brčálník	-0.122905
-5.092851	brčálníku	-0.1879903
-2.849948	bude	-0.4051688
-4.791889	budeme	-0.1859563
-2.6412	budete	-0.7644283
-4.18988	budou	-0.2057407
-5.092851	budovy	-0.1294624
-3.661618	budu	-0.4352154
-3.119858	budějovic	-0.2943193
-3.402788	budějovice	-0.4494544
-5.092851	budějovicemi	-0.1774826
-3.678009	budějovicích	-0.2844212
-5.092851	bufalová	-0.1848862
-5.092851	bulýnová	-0.1848862
-5.092851	bureš	-0.1813891
-5.092851	buzková	-0.1840084
-5.092851	bučovic	-0.1883658
-5.092851	bučovice	-0.1294624
-5.092851	bučovicích	-0.1873052
-3.092986	buď	-0.4803829
-3.770761	buďte	-1.338436
-2.461543	by	-0.8790373
-2.147026	bych	-1.095855
-3.916887	bychom	-0.2219039
-2.953107	byl	-0.3359845
-3.088664	byla	-0.6544189
-3.86253	byli	-0.3242568
-2.902654	bylo	-0.3323842
-4.61582	byly	-0.1672228
-2.6412	byste	-0.8696589
-5.092851	bystřický	-0.1840084
-5.092851	bém	-0.1813891
-5.092851	bílek	-0.1813891
-3.129198	být	-0.4089666
-5.092851	bývalo	-0.1882115
-5.092851	bývalého	-0.1885342
-4.791889	bývalý	-0.3686167
-3.814226	během	-0.7336152
-5.092851	bělou	-0.1861785
-4.314813	bělé	-0.2349398
-4.490893	bělčic	-0.1173183
-5.092851	běžné	-0.1885938
-4.18988	břeclavi	-0.1787853
-5.092851	břeclaví	-0.1886043
-5.092851	bříza	-0.1885517
-4.490893	bříze	-0.2459579
-3.837707	břízy	-0.2261182
-4.314813	cassovia	-0.1717232
-5.092851	cc	-0.1880044
-4.791889	cebiv	-0.1862525
-4.791889	cebivi	-0.1294544
-4.61582	celkem	-0.1823683
-5.092851	celkově	-0.1294624
-5.092851	celníci	-0.1885692
-5.092851	celou	-0.1294624
-5.092851	celá	-0.1885377
-5.092851	celého	-0.1885903
-4.314813	celý	-0.4403717
-5.092851	celým	-0.1886043
-3.946849	cena	-0.1361848
-5.092851	centrum	-0.1848862
-5.092851	centrál	-0.1813891
-3.695042	cenu	-0.2378057
-5.092851	ceny	-0.1883167
-5.092851	ceně	-0.1885973
-5.092851	cerekev	-0.186788
-5.092851	cerekve	-0.1852361
-5.092851	cerekvi	-0.1294624
-4.247869	cesta	-0.3393863
-5.092851	cestovala	-0.1843767
-4.791889	cestovat	-0.1737366
-5.092851	cestovní	-0.1886043
-4.791889	cestovních	-0.3686027
-4.791889	cestu	-0.1218719
-4.791889	cesty	-0.1292816
-5.092851	charalík	-0.1840084
-5.092851	chce	-0.1885307
-5.092851	chceme	-0.1881799
-2.894329	chcete	-0.5436062
-3.630584	chci	-0.5590401
-3.5132	cheb	-0.3976304
-3.110714	chebu	-0.2472192
-5.092851	chemicky	-0.1715506
-5.092851	chlumce	-0.1884886
-5.092851	chlumci	-0.1872559
-3.86253	chlumčan	-0.2471271
-4.791889	chlumčanech	-0.1715105
-5.092851	chlumčany	-0.1848862
-5.092851	chodovou	-0.1294624
-4.61582	chodové	-0.6643798
-5.092851	chodské	-0.1885938
-4.61582	choltice	-0.6053501
-5.092851	choltici	-0.1856705
-3.888859	chomutov	-0.5403481
-3.695042	chomutova	-0.1816894
-3.79195	chomutově	-0.4474809
-5.092851	chotěšova	-0.1294624
-4.314813	chrást	-0.1089551
-3.561504	chrástu	-0.359485
-5.092851	chtít	-0.1715506
-5.092851	chtějí	-0.1881799
-2.905466	chtěl	-0.9016469
-2.621695	chtěla	-0.8832766
-4.18988	chtěli	-0.3058142
-5.092851	chtělo	-0.1886043
-4.18988	chvíli	-0.1199708
-4.61582	chvílí	-0.1879306
-5.092851	chytíte	-0.1850099
-5.092851	chárová	-0.1813891
-5.092851	cidlinou	-0.1874247
-5.092851	citrón	-0.1886043
-5.092851	cizina	-0.1294624
-5.092851	cizinu	-0.1294624
-3.043768	co	-0.4109344
-5.092851	comorádová	-0.1813891
-3.979033	copak	-0.2066605
-5.092851	cígler	-0.1879517
-5.092851	cílová	-0.1885517
-5.092851	dají	-0.1294624
-4.490893	dala	-0.1817846
-5.092851	daleko	-0.1880606
-4.490893	dalo	-0.2529825
-3.003081	další	-0.4918464
-4.791889	dalším	-0.1881658
-5.092851	dana	-0.1886043
-5.092851	daneš	-0.1840084
-4.39399	datum	-0.3467702
-5.092851	de	-0.1294624
-5.092851	defakto	-0.1880044
-4.247869	deggendorfu	-0.1326222
-5.092851	dejková	-0.1813891
-4.61582	dejme	-0.6644675
-4.61582	dejte	-0.2985825
-4.61582	delší	-0.2978115
-1.907162	den	-0.6086432
-4.791889	denně	-0.1881202
-2.279406	deset	-0.7240584
-3.888859	deseti	-0.2860529
-4.490893	desátou	-0.4887856
-3.33711	desáté	-0.6178982
-4.247869	desátého	-0.2247718
-3.86253	devadesát	-0.553501
-2.439775	devatenáct	-1.06333
-4.490893	devatenácti	-0.1205699
-5.092851	devatenáctou	-0.1774826
-4.092973	devatenácté	-0.8265724
-5.092851	devatenáctého	-0.1294624
-4.013794	devátou	-0.2538782
-5.092851	devátá	-0.1885938
-3.286805	deváté	-0.5541418
-4.490893	devátého	-0.1268876
-5.092851	devátém	-0.1801326
-4.18988	devíti	-0.3039765
-4.791889	devítka	-0.1829761
-2.153468	devět	-0.7806096
-4.791889	devěta	-0.182667
-5.092851	devětset	-0.1885482
-5.092851	diktovala	-0.1801326
-5.092851	disketu	-0.1294624
-5.092851	dispozici	-0.1862137
-3.241727	dlouho	-0.4071672
-5.092851	dlouhý	-0.1294624
-5.092851	dlužníkem	-0.1294624
-4.39399	dne	-0.1923639
-2.494196	dnes	-0.6472018
-4.490893	dnešek	-0.2016938
-4.61582	dneška	-0.296131
-4.61582	dnešní	-0.1873861
-4.791889	dni	-0.1292052
-3.645824	dny	-0.3942744
-5.092851	dní	-0.1294624
-1.820449	do	-0.9442726
-4.490893	doba	-0.2063556
-4.791889	dobrou	-0.3685921
-4.61582	dobrá	-0.1179046
-4.39399	dobré	-0.4077249
-1.977377	dobrý	-1.956802
-4.39399	dobu	-0.1281225
-5.092851	doby	-0.1881834
-4.490893	době	-0.1988124
-5.092851	doběhnu	-0.1294624
-3.615861	dobřan	-0.2807466
-4.791889	dobřanech	-0.1837284
-4.490893	dobřany	-0.204308
-2.416293	dobře	-1.00521
-4.18988	docela	-0.2170849
-5.092851	dohromady	-0.1884605
-4.791889	dojede	-0.1646668
-4.490893	dojedete	-0.4650796
-4.791889	dojel	-0.1802005
-4.61582	dojela	-0.1830932
-5.092851	dojeli	-0.1294624
-5.092851	dojet	-0.1819911
-4.61582	dojezd	-0.2931176
-4.791889	dokonce	-0.128324
-5.092851	dokoupit	-0.1804792
-5.092851	doktor	-0.1886043
-5.092851	doktorka	-0.1886008
-4.39399	dole	-0.3087133
-5.092851	dolem	-0.1861785
-4.247869	dolní	-0.2684474
-4.18988	dolního	-0.2377876
-5.092851	dolním	-0.1885272
-4.791889	doma	-0.1259005
-3.430227	domažlic	-0.3431677
-3.630584	domažlice	-0.1423355
-3.86253	domažlicích	-0.2799901
-4.490893	domluvit	-0.185017
-5.092851	domluvte	-0.1862137
-4.490893	domluvíte	-0.4863832
-4.791889	domů	-0.1285535
-5.092851	doplatek	-0.1886043
-4.791889	doplácet	-0.1291771
-2.962652	dopoledne	-0.3268822
-4.61582	dopolední	-0.2403387
-4.791889	dopoledních	-0.1877972
-5.092851	doporučila	-0.1294624
-5.092851	doprava	-0.1294624
-5.092851	dopravit	-0.1886008
-5.092851	dopravní	-0.1882465
-5.092851	dopravy	-0.1885377
-5.092851	dorazila	-0.1846209
-5.092851	dorazím	-0.1294624
-5.092851	doručit	-0.1774826
-5.092851	doslechli	-0.1879658
-4.791889	dospělá	-0.1885342
-4.791889	dospělý	-0.1294544
-3.979033	dost	-0.3205169
-4.13873	dostal	-0.3201294
-3.946849	dostala	-0.3197384
-4.791889	dostali	-0.1288071
-5.092851	dostalo	-0.1883764
-3.814226	dostanu	-0.247735
-3.394015	dostat	-0.5559496
-4.791889	dostál	-0.1832069
-5.092851	dostávají	-0.1883588
-3.837707	dotaz	-0.3031329
-5.092851	dotazů	-0.1884184
-5.092851	doubravce	-0.1801326
-5.092851	doubraveckého	-0.1881132
-4.092973	doubravky	-0.1380721
-4.791889	doudlevců	-0.1785029
-5.092851	doufám	-0.1294624
-5.092851	dovolal	-0.1877305
-4.61582	dovolala	-0.1843732
-5.092851	dovolat	-0.1852608
-5.092851	dozvěděla	-0.1879658
-4.61582	dozvědět	-0.1671381
-5.092851	dořekněte	-0.1876497
-5.092851	došli	-0.1886008
-5.092851	drah	-0.1886008
-5.092851	drahý	-0.1879658
-4.791889	drakem	-0.1654478
-4.791889	dražší	-0.3668567
-5.092851	dresden	-0.1883343
-4.791889	dresdenech	-0.127913
-4.013794	druhou	-0.3644642
-4.791889	druhá	-0.1836468
-3.394015	druhé	-0.7460315
-4.092973	druhého	-0.3986332
-3.490924	druhý	-0.2291099
-4.791889	druhým	-0.1674033
-4.791889	dráhu	-0.1830293
-3.5132	dráhy	-0.9778435
-4.39399	drážní	-0.1898472
-4.490893	drážním	-0.2669077
-4.791889	duchková	-0.3640243
-5.092851	duchoňová	-0.1813891
-5.092851	dufková	-0.1840084
-2.200892	dva	-0.7136176
-4.18988	dvaa	-0.4221137
-1.883472	dvacet	-1.25899
-4.051582	dvaceti	-0.266376
-4.39399	dvacátou	-0.3984951
-4.051582	dvacáté	-0.3612651
-3.293644	dvacátého	-0.5634292
-4.61582	dvacátým	-0.1884675
-5.092851	dvakrát	-0.1885903
-2.434022	dvanáct	-0.908121
-4.247869	dvanácti	-0.396195
-4.490893	dvanáctou	-0.1165575
-3.5132	dvanácté	-0.422194
-5.092851	dvojmo	-0.1774826
-4.18988	dvou	-0.5608646
-5.092851	dvořišti	-0.1294624
-4.39399	dvořiště	-0.2642794
-5.092851	dvořáková	-0.1840084
-3.678009	dvě	-0.3756832
-4.61582	dvěma	-0.1294343
-3.770761	dvěstě	-0.4866705
-4.314813	dá	-0.446054
-3.524782	dál	-0.4106632
-3.630584	dám	-0.5504694
-5.092851	dáme	-0.1883693
-4.39399	dát	-0.1217206
-5.092851	dáte	-0.18727
-4.490893	dávat	-0.1819484
-4.39399	dávno	-0.3469324
-5.092851	dává	-0.1882957
-5.092851	dáváte	-0.1878077
-3.385414	déle	-0.4096056
-5.092851	dírách	-0.1860445
-4.39399	dítě	-0.178858
-4.61582	dítětem	-0.237591
-5.092851	dívala	-0.1860445
-5.092851	dívka	-0.1885237
-4.791889	dívám	-0.1871715
-4.490893	düsseldorfu	-0.1905057
-5.092851	dýšiné	-0.1294624
-4.791889	děkujeme	-0.1218964
-2.012	děkuji	-1.80406
-5.092851	dělají	-0.1886043
-4.61582	dělat	-0.1234064
-5.092851	děleno	-0.1885973
-5.092851	dělá	-0.1857693
-5.092851	dělí	-0.1868408
-4.791889	dětem	-0.1821193
-4.092973	děti	-0.3901078
-4.314813	dětmi	-0.1763792
-4.490893	dětí	-0.1287185
-4.39399	děčín	-0.3158333
-3.946849	děčína	-0.1868794
-4.092973	děčíně	-0.151495
-3.143596	dříve	-0.4707245
-4.39399	dřívější	-0.1897663
-5.092851	dřívějšího	-0.1876497
-5.092851	dřívějším	-0.1294624
-4.490893	důchodce	-0.2100525
-5.092851	důchodkyně	-0.1827416
-5.092851	důvodů	-0.1886043
-4.490893	einstein	-0.196115
-3.013805	eurocity	-0.431179
-4.791889	eventuálně	-0.3666278
-4.791889	existuje	-0.1849286
-4.791889	existují	-0.1883588
-3.195359	expres	-0.4848268
-4.247869	expresem	-0.1423436
-5.092851	expresní	-0.1884184
-5.092851	expresy	-0.1294624
-3.678009	fajn	-0.6615804
-4.791889	fakt	-0.1294504
-5.092851	fantastické	-0.1843767
-5.092851	fantastický	-0.1885903
-5.092851	fejtl	-0.1294624
-5.092851	fencl	-0.1840084
-5.092851	fešáku	-0.1883658
-4.791889	fiala	-0.3640243
-5.092851	fialová	-0.1294624
-5.092851	finanční	-0.1875864
-4.791889	finančně	-0.1872278
-5.092851	flahýsková	-0.1294624
-5.092851	flešerová	-0.1840084
-5.092851	fordová	-0.1882465
-4.61582	formulář	-0.1138633
-4.791889	fotografie	-0.1294584
-5.092851	fotografii	-0.1885622
-5.092851	fotografií	-0.1774826
-5.092851	fořová	-0.1848862
-4.791889	frankfurt	-0.1850912
-4.61582	frankfurtu	-0.09648836
-4.247869	františkovy	-0.6611333
-3.678009	františkových	-0.9353669
-4.791889	frantovek	-0.1291047
-5.092851	franz	-0.1885903
-5.092851	frontu	-0.1294624
-5.092851	frýdek	-0.1886043
-5.092851	frýdku	-0.1886043
-5.092851	funguje	-0.1294624
-4.314813	furt	-0.1812753
-4.39399	furth	-0.8335359
-4.61582	furthu	-0.1101958
-5.092851	fázi	-0.1848862
-5.092851	gaboňková	-0.1848862
-4.791889	gabrielová	-0.3640243
-5.092851	galová	-0.1840084
-5.092851	galušková	-0.1848862
-5.092851	gdynii	-0.1715506
-5.092851	gil	-0.1848862
-5.092851	gottwaldovo	-0.1861785
-4.490893	grafikonu	-0.202631
-5.092851	grubrová	-0.1840084
-5.092851	hablová	-0.1813891
-5.092851	hajšmanová	-0.1840084
-5.092851	hala	-0.1848862
-5.092851	hale	-0.1294624
-5.092851	halederová	-0.1840084
-3.548915	haló	-1.134983
-5.092851	hamernický	-0.1883308
-4.61582	hanau	-0.1818772
-5.092851	hanhavel	-0.1813891
-5.092851	hanover	-0.1813891
-5.092851	hanzlíková	-0.1848862
-5.092851	hančová	-0.1813891
-5.092851	hanžlová	-0.1882465
-5.092851	hartmanová	-0.1848862
-5.092851	hava	-0.1840084
-5.092851	havel	-0.1840084
-5.092851	havlíková	-0.1848862
-5.092851	havlíčkova	-0.1885938
-5.092851	havlíčkově	-0.1885938
-4.39399	havlíčkův	-0.8335429
-5.092851	havířova	-0.1876497
-5.092851	hefnerová	-0.1885903
-4.39399	heleďte	-0.1765067
-4.791889	hermanová	-0.1836433
-4.314813	hezky	-0.5711697
-4.247869	hezký	-0.1501545
-5.092851	hezčí	-0.1294624
-4.051582	heřmanovy	-0.3236825
-4.791889	heřmaně	-0.1698628
-4.490893	heřmaň	-0.1974244
-5.092851	hilianová	-0.1877796
-4.791889	historický	-0.1885657
-5.092851	hlavičný	-0.1848862
-3.229662	hlavní	-0.4946678
-2.779119	hlavního	-0.6416535
-3.013805	hlavním	-0.670124
-4.61582	hlavně	-0.1883062
-5.092851	hlediska	-0.1886008
-5.092851	hlinska	-0.1715506
-5.092851	hlinsko	-0.1294624
-5.092851	hlinsku	-0.1294624
-4.791889	hloupost	-0.1800289
-5.092851	hloupá	-0.1886008
-5.092851	hlásí	-0.1885938
-5.092851	hlášení	-0.1294624
-3.329557	hned	-0.3298537
-4.490893	hnedle	-0.1264146
-3.79195	ho	-0.2473176
-4.791889	hodil	-0.3671206
-4.490893	hodilo	-0.3077555
-2.744682	hodin	-0.5069828
-4.490893	hodina	-0.1256695
-3.678009	hodinou	-0.389653
-3.4802	hodinu	-0.477045
-2.578439	hodiny	-0.5679766
-4.18988	hodinách	-0.2981608
-2.962652	hodině	-0.492626
-3.314834	hodná	-0.4007503
-4.13873	hodně	-0.2820129
-4.791889	hodonína	-0.1812501
-5.092851	hodoníně	-0.1856352
-4.490893	hodí	-0.2041899
-5.092851	hojsovu	-0.1886008
-4.61582	hojsovy	-0.2408372
-5.092851	hojsově	-0.1885272
-5.092851	holce	-0.1868337
-4.013794	holešovic	-0.2398049
-4.314813	holešovice	-0.1710858
-5.092851	holky	-0.1874247
-4.39399	holostřev	-0.1608531
-4.490893	holostřevech	-0.2518269
-4.39399	holostřevy	-0.09615014
-5.092851	holoubkov	-0.1294624
-4.314813	holoubkova	-0.1070896
-4.490893	holoubkově	-0.1070049
-5.092851	holá	-0.1840084
-5.092851	holýšovem	-0.1877199
-5.092851	homolka	-0.1813891
-5.092851	honmyková	-0.1840084
-5.092851	honza	-0.1886043
-5.092851	hor	-0.1877199
-3.548915	horažďovic	-0.4505633
-3.837707	horažďovice	-0.5822715
-3.79195	horažďovicích	-0.4892739
-5.092851	horem	-0.1885657
-3.587833	horní	-0.6466048
-4.490893	horního	-0.2674714
-5.092851	horníková	-0.1840084
-5.092851	horová	-0.1885342
-5.092851	horvátová	-0.1886043
-5.092851	horáček	-0.1294624
-5.092851	horšovského	-0.1886008
-4.490893	horší	-0.1222805
-5.092851	hostouně	-0.1294624
-4.791889	hostouň	-0.3094783
-4.490893	hotel	-0.2693406
-5.092851	houby	-0.1879447
-3.916887	hořovic	-0.2654994
-3.837707	hořovicích	-0.2730069
-5.092851	hrabě	-0.1294624
-5.092851	hracholusky	-0.1715506
-5.092851	hrachová	-0.1813891
-3.601621	hradce	-0.3526376
-4.092973	hradci	-0.3321785
-4.18988	hradec	-0.1472819
-4.791889	hradiště	-0.1285535
-4.18988	hranic	-0.1237346
-4.61582	hranice	-0.2381007
-4.61582	hranicích	-0.1240617
-5.092851	hranicím	-0.1875934
-5.092851	hrochova	-0.1886043
-4.791889	hrochův	-0.3686167
-5.092851	hromadnou	-0.1885447
-4.61582	hrozně	-0.1844121
-4.791889	hruška	-0.1802469
-5.092851	hrušková	-0.1886043
-4.791889	hrádek	-0.3094783
-4.61582	hrádku	-0.2405679
-5.092851	hrůza	-0.1879728
-5.092851	hubičková	-0.1813891
-5.092851	humpolecká	-0.1813891
-4.791889	huti	-0.3094783
-4.490893	hutě	-0.10114
-5.092851	hádková	-0.1840084
-5.092851	hřebačková	-0.1840084
-5.092851	hříbková	-0.1866119
-3.075953	i	-0.4046226
-4.18988	ideální	-0.1349055
-4.247869	im	-0.6734189
-2.032289	informace	-1.923884
-3.601621	informaci	-0.2431466
-4.791889	informací	-0.1798214
-5.092851	informacích	-0.1852608
-5.092851	informační	-0.1886043
-5.092851	informovala	-0.1801326
-3.916887	informovat	-0.4278974
-3.047663	intercity	-0.552046
-4.791889	interexpres	-0.3094783
-5.092851	internetu	-0.1885973
-5.092851	italský	-0.1801326
-2.689866	jak	-0.7690616
-5.092851	jakmile	-0.1827416
-2.857458	jako	-0.1842813
-5.092851	jakou	-0.1885201
-5.092851	jakoupak	-0.188464
-3.314834	jakpak	-0.624753
-4.61582	jaká	-0.6586293
-4.314813	jaké	-0.1706616
-4.092973	jakého	-0.4582189
-4.490893	jakéhopak	-0.4829766
-4.791889	jaképak	-0.1754239
-3.587833	jaký	-0.3916717
-5.092851	jakých	-0.1886043
-4.490893	jakýkoliv	-0.2689443
-5.092851	jakým	-0.1886043
-5.092851	jakýmpak	-0.1885973
-4.791889	jakýpak	-0.1772559
-5.092851	jakže	-0.1294624
-5.092851	jandová	-0.1840084
-5.092851	janeček	-0.1813891
-5.092851	janečková	-0.1840084
-5.092851	janko	-0.1840084
-4.314813	janovic	-0.2089663
-4.39399	janovice	-0.4620254
-4.39399	janovicích	-0.1760641
-5.092851	janurová	-0.1813891
-5.092851	jančová	-0.1840084
-4.39399	jasný	-0.5167114
-3.888859	jasně	-0.24024
-5.092851	jasonská	-0.1813891
-4.490893	jde	-0.1100445
-1.872356	je	-0.5902981
-5.092851	jebštekán	-0.1877796
-1.939477	jede	-0.807515
-5.092851	jedeli	-0.1874247
-4.791889	jedeme	-0.1680691
-3.4802	jeden	-0.3682877
-5.092851	jedena	-0.1863195
-2.389696	jedenáct	-0.95437
-4.13873	jedenácti	-0.2683945
-4.791889	jedenáctka	-0.3094783
-5.092851	jedenáctky	-0.1827416
-4.490893	jedenáctou	-0.1904972
-5.092851	jedenáctá	-0.1878112
-3.536681	jedenácté	-0.6913922
-4.61582	jedenáctého	-0.2956533
-3.173908	jedete	-0.595987
-5.092851	jediné	-0.1885833
-4.791889	jediný	-0.1774754
-3.695042	jedině	-0.1826433
-2.297802	jedna	-0.754078
-3.946849	jednaa	-0.5129333
-4.61582	jednak	-0.1652406
-5.092851	jednalo	-0.1871047
-4.61582	jednička	-0.6053501
-5.092851	jedničku	-0.1294624
-5.092851	jedničky	-0.1294624
-3.615861	jedno	-0.2210361
-5.092851	jednoduchý	-0.1886043
-5.092851	jednodušší	-0.188215
-4.791889	jednom	-0.3686167
-5.092851	jednomu	-0.1883167
-5.092851	jednorázový	-0.1884184
-5.092851	jednotky	-0.1864393
-3.601621	jednou	-0.1907694
-3.695042	jednu	-0.2693192
-3.561504	jedné	-0.5223733
-4.791889	jedním	-0.1823292
-3.430227	jedou	-0.3926566
-4.051582	jedu	-0.2069218
-3.329557	jel	-0.2507918
-3.615861	jela	-0.1885261
-4.490893	jeli	-0.1688806
-3.79195	jelo	-0.2782856
-5.092851	jely	-0.1846209
-4.791889	jelínek	-0.1251951
-5.092851	jelínková	-0.1840084
-2.862538	jenom	-0.3711358
-4.61582	jenže	-0.1643073
-4.314813	jesenice	-0.1471629
-2.629094	jestli	-0.7045747
-4.61582	jestlipak	-0.2912042
-3.006626	jet	-0.4788352
-3.979033	jezdil	-0.1868813
-4.61582	jezdila	-0.1872595
-4.092973	jezdilo	-0.2082566
-4.051582	jezdit	-0.1126832
-2.807429	jezdí	-0.4279064
-5.092851	jezdím	-0.1715506
-5.092851	jezdíte	-0.1819911
-4.39399	jezdíval	-0.1779751
-4.39399	jezdívalo	-0.1728286
-5.092851	jezdívá	-0.1294624
-2.338639	ještě	-0.409414
-4.791889	ji	-0.186041
-4.39399	jich	-0.2402008
-5.092851	jih	-0.1294624
-5.092851	jihlava	-0.1859175
-4.13873	jihlavy	-0.3257467
-4.61582	jihlavě	-0.1086686
-4.61582	jim	-0.1874142
-3.439772	jinak	-0.1520113
-5.092851	jince	-0.1828908
-4.791889	jinců	-0.1867492
-3.916887	jindřichova	-1.204011
-4.61582	jindřichově	-0.6644605
-4.791889	jindřichův	-0.3685957
-4.791889	jiná	-0.3685991
-5.092851	jiné	-0.1885517
-3.79195	jiného	-0.5494485
-3.79195	jiný	-0.2440684
-5.092851	jiných	-0.1886043
-5.092851	jirafová	-0.1813891
-5.092851	jiroušek	-0.1840084
-5.092851	jirovec	-0.1294624
-4.791889	jistotu	-0.128976
-5.092851	jistý	-0.1294624
-4.247869	jistě	-0.3142265
-4.791889	jistěže	-0.1856281
-4.61582	jičín	-0.2995381
-4.61582	jičína	-0.1132215
-4.490893	jičíně	-0.1055429
-5.092851	jiřková	-0.1813891
-4.490893	jižní	-0.1237687
-4.791889	jižních	-0.1885833
-3.587833	jižního	-0.2482276
-4.247869	jižním	-0.2601565
-4.490893	jmenuje	-0.1254263
-5.092851	jméno	-0.1774826
-2.013444	jo	-0.8372149
-5.092851	job	-0.1886043
-5.092851	johan	-0.1819911
-5.092851	johanngeorgenstadtu	-0.1880044
-5.092851	jonák	-0.1840084
-2.695047	jsem	-0.7294749
-3.731253	jsme	-0.1944326
-3.173908	jsou	-0.4841169
-2.507526	jste	-0.9032515
-5.092851	jungman	-0.1813891
-4.39399	junák	-0.0934568
-2.068912	já	-1.414011
-4.791889	jé	-0.3640243
-4.013794	jéžiš	-0.243606
-4.61582	jéžišmarjá	-0.1742224
-4.61582	jí	-0.1794635
-5.092851	jízda	-0.1294624
-3.79195	jízdenka	-0.2973499
-3.837707	jízdenku	-0.1571255
-4.61582	jízdenky	-0.1211764
-4.18988	jízdné	-0.1766844
-4.314813	jízdného	-0.1637014
-3.695042	jízdní	-1.220708
-5.092851	jízdních	-0.1885938
-4.18988	jízdního	-0.5645777
-4.490893	jízdním	-0.210157
-4.490893	jízdy	-0.1147327
-4.791889	jízdě	-0.1684952
-5.092851	jůnová	-0.1848862
-5.092851	jůzek	-0.1813891
-3.750558	k	-0.6077233
-4.791889	kadani	-0.1278484
-4.13873	kadaně	-0.114701
-4.490893	kadaň	-0.1844829
-4.791889	kadeřábková	-0.1211805
-5.092851	kadlec	-0.1883167
-4.39399	kafka	-0.1690474
-5.092851	kafkou	-0.1294624
-5.092851	kafku	-0.1877937
-3.260476	kam	-0.5810404
-4.791889	kamenice	-0.1292816
-4.39399	kampak	-0.1150942
-5.092851	kancelář	-0.1294624
-5.092851	kanceláři	-0.1868408
-5.092851	kaproun	-0.1715506
-4.791889	kaprouna	-0.1285294
-4.791889	kaprounu	-0.1881062
-5.092851	karel	-0.1886043
-4.791889	karlovy	-0.3686132
-4.092973	karlových	-1.18759
-5.092851	karlíková	-0.1813891
-4.791889	karlštejn	-0.3094783
-4.791889	kartu	-0.1248908
-5.092851	karvinou	-0.1294624
-4.61582	karviné	-0.6053501
-5.092851	karásková	-0.1882465
-5.092851	kasalová	-0.1813891
-4.18988	kasejovic	-0.1003847
-4.791889	kasejovice	-0.1270493
-5.092851	kasejovicích	-0.1872559
-4.791889	katovic	-0.122905
-5.092851	katovice	-0.1870273
-4.490893	kaznějov	-0.1741282
-5.092851	kaznějova	-0.1872137
-4.61582	kaznějově	-0.1215775
-4.490893	kařízku	-0.1905141
-5.092851	kašparová	-0.1294624
-5.092851	kašperských	-0.1886043
-4.314813	kaštic	-0.1378189
-4.314813	kaštice	-0.2050633
-4.61582	kašticích	-0.1165948
-4.61582	každou	-0.1871539
-5.092851	každého	-0.1884675
-3.043768	každý	-1.626915
-3.946849	kde	-0.2241044
-2.825815	kdy	-0.632039
-3.33711	kdyby	-0.5838078
-3.79195	kdybych	-0.2490217
-4.61582	kdybychom	-0.1885763
-3.4802	kdybyste	-0.7617126
-4.791889	kdyně	-0.3094783
-3.163567	kdypak	-0.5334688
-2.999564	když	-0.5893439
-3.678009	kdyžtak	-0.1856587
-5.092851	kelerová	-0.1813891
-5.092851	kešnerová	-0.1840084
-5.092851	kiev	-0.1294624
-5.092851	kilometry	-0.1886043
-4.39399	kilometrů	-0.2331998
-5.092851	kk	-0.1880044
-5.092851	kladno	-0.1881834
-4.490893	kladně	-0.1231618
-5.092851	kladívko	-0.1848862
-5.092851	klapku	-0.1294624
-5.092851	klasický	-0.1852361
-3.080148	klatov	-0.372119
-3.4802	klatovech	-0.530187
-3.439772	klatovy	-0.2589052
-5.092851	klaubert	-0.1813891
-4.61582	klenčí	-0.1774574
-4.791889	klidně	-0.1290444
-5.092851	kluc	-0.1813891
-5.092851	klára	-0.1886008
-5.092851	klášterce	-0.185614
-4.791889	klášterci	-0.1656031
-5.092851	knížka	-0.1886043
-5.092851	kohout	-0.1294624
-5.092851	kokožka	-0.1840084
-4.490893	kol	-0.1288352
-4.092973	kola	-0.2733955
-5.092851	kolega	-0.1852608
-5.092851	koleje	-0.1886043
-2.392283	kolem	-1.124801
-2.450522	kolik	-0.8678576
-5.092851	kolika	-0.1879306
-2.897087	kolikpak	-0.719975
-5.092851	kolikrát	-0.1876145
-4.791889	kolikáté	-0.1289197
-4.18988	kolikátého	-0.5096586
-5.092851	kolinci	-0.1294624
-4.791889	kolinec	-0.1867809
-4.18988	kolo	-0.287643
-5.092851	kolomazníková	-0.1840084
-5.092851	kolouvá	-0.1848862
-5.092851	koly	-0.1819911
-4.61582	kolín	-0.1793167
-4.013794	kolína	-0.2034306
-4.61582	kolíně	-0.1537049
-5.092851	konce	-0.1884991
-5.092851	konec	-0.1884991
-5.092851	konečně	-0.1869393
-4.61582	konkrétně	-0.1287105
-5.092851	konop	-0.1840084
-4.490893	konstantinovy	-0.4778306
-4.013794	konstantinových	-0.9481055
-5.092851	kontrolují	-0.1843767
-5.092851	končin	-0.1880746
-4.39399	končí	-0.1638139
-5.092851	kopalová	-0.1813891
-5.092851	korandová	-0.1848862
-4.314813	kornatic	-0.1108253
-4.791889	kornatice	-0.3094783
-2.996076	korun	-0.8329583
-4.791889	korunovým	-0.3685746
-4.314813	koruny	-0.276944
-4.092973	kostelce	-0.2740304
-4.61582	kostelci	-0.1784383
-4.791889	kostelec	-0.1802327
-5.092851	kostomlat	-0.1884886
-5.092851	kostomlaty	-0.1884886
-5.092851	koterov	-0.1828908
-4.791889	koterova	-0.1791089
-5.092851	koterově	-0.1827416
-4.791889	kotouně	-0.3094783
-5.092851	koukal	-0.1879658
-5.092851	koukala	-0.1843767
-4.61582	koukneme	-0.1795208
-4.791889	koukněte	-0.3515665
-5.092851	koupila	-0.1886008
-4.39399	koupit	-0.2509873
-4.791889	koupí	-0.129374
-5.092851	koupím	-0.1885447
-4.490893	koupíte	-0.2680626
-5.092851	kovanda	-0.1840084
-5.092851	koza	-0.1840084
-4.791889	kozel	-0.1285495
-5.092851	kozlová	-0.1848862
-4.13873	kozolup	-0.125748
-4.791889	kozolupech	-0.1696577
-5.092851	kozolupy	-0.1885798
-5.092851	kočová	-0.1813891
-5.092851	kočárek	-0.1294624
-5.092851	kořínková	-0.1840084
-4.791889	košata	-0.1776049
-4.791889	košic	-0.1684952
-4.791889	košice	-0.1288513
-4.18988	kožlan	-0.226995
-4.61582	kožlanech	-0.1839623
-5.092851	kožlany	-0.1294624
-5.092851	kožnerová	-0.1840084
-4.791889	krakonoš	-0.1873825
-5.092851	krakow	-0.1828908
-5.092851	krakowa	-0.1715506
-4.791889	kralovic	-0.1856387
-4.791889	kralovice	-0.1762688
-5.092851	kralup	-0.1819911
-4.791889	kralupech	-0.1794671
-4.791889	krejčí	-0.3640243
-4.18988	kromě	-0.3649502
-5.092851	kroust	-0.1848862
-4.791889	krumlov	-0.1276549
-4.314813	krumlova	-0.1634502
-4.791889	krumlově	-0.3094783
-4.051582	králové	-0.1452764
-4.61582	králového	-0.1701884
-5.092851	královéhradecký	-0.1883308
-4.791889	kránu	-0.1260301
-4.490893	krásný	-0.167944
-5.092851	krásně	-0.1883167
-5.092851	krátká	-0.1885938
-5.092851	které	-0.1874599
-4.314813	kterého	-0.6292271
-5.092851	kteréhopak	-0.1884325
-3.051593	který	-0.7034001
-5.092851	kterýkoliv	-0.18727
-4.39399	kterým	-0.4068287
-5.092851	kterými	-0.1880535
-4.247869	kterýpak	-0.3212761
-5.092851	kubica	-0.1886008
-5.092851	kubice	-0.1875934
-4.791889	kubici	-0.1865696
-4.791889	kubičková	-0.3640243
-5.092851	kubík	-0.1813891
-4.791889	kubíčková	-0.3640243
-4.61582	kufřík	-0.1676204
-5.092851	kulíšková	-0.1840084
-5.092851	kunc	-0.1813891
-5.092851	kunovic	-0.1870062
-4.791889	kunovice	-0.169141
-4.61582	kupovat	-0.179757
-4.791889	kupuje	-0.1879306
-5.092851	kupuji	-0.1886043
-5.092851	kupují	-0.1862137
-5.092851	kurýra	-0.1294624
-4.791889	kurýrem	-0.181984
-5.092851	kus	-0.1886043
-4.791889	kuse	-0.1795244
-5.092851	kutáková	-0.1294624
-4.791889	kvality	-0.1294062
-3.79195	kvečeru	-0.2997277
-3.601621	května	-0.4095338
-5.092851	květnem	-0.1294624
-4.791889	květnu	-0.1287588
-4.61582	kvůli	-0.1879026
-5.092851	kynšperk	-0.1864428
-5.092851	kynšperka	-0.1884886
-4.13873	kynžvartu	-0.1080924
-5.092851	kút	-0.1715506
-4.490893	kútech	-0.2521771
-4.791889	kúty	-0.1864322
-5.092851	kútů	-0.1774826
-5.092851	křemže	-0.1876497
-4.791889	křimice	-0.180129
-5.092851	křičet	-0.1846209
-5.092851	křičte	-0.1852608
-4.092973	labem	-0.08193546
-4.791889	lacinová	-0.361405
-5.092851	laciněji	-0.1294624
-5.092851	lacinější	-0.1861785
-5.092851	lang	-0.1886008
-4.61582	langová	-0.1198682
-5.092851	lankašová	-0.1840084
-5.092851	laskav	-0.1294624
-4.013794	laskavost	-0.830385
-3.916887	laskavá	-0.2665189
-5.092851	lavičková	-0.1813891
-4.791889	leda	-0.1878464
-5.092851	ledna	-0.1294624
-5.092851	legitimace	-0.1886043
-5.092851	lehátek	-0.1715506
-5.092851	lehátka	-0.1294624
-5.092851	lehátkový	-0.1861785
-3.888859	lepší	-0.3420992
-3.615861	let	-0.2327793
-5.092851	letadlo	-0.1801326
-4.791889	letním	-0.3686167
-5.092851	letá	-0.1886043
-5.092851	letí	-0.1886043
-4.490893	lhoty	-0.1959448
-4.61582	liberce	-0.1282998
-4.791889	liberec	-0.1627324
-4.39399	lidí	-0.1185313
-5.092851	limit	-0.1853139
-5.092851	lindová	-0.1813891
-4.61582	linz	-0.1844404
-5.092851	linze	-0.1885903
-4.791889	linzi	-0.11669
-4.791889	list	-0.1291972
-4.791889	litoměřic	-0.1293941
-4.39399	litoměřice	-0.5211287
-4.791889	ll	-0.1230722
-5.092851	lnář	-0.1843767
-4.791889	lokomotiva	-0.1809969
-5.092851	lokomotivu	-0.1861785
-5.092851	lokomotivy	-0.1875337
-4.247869	lokálka	-0.4634649
-5.092851	lokálková	-0.1294624
-4.791889	lokálku	-0.1771084
-5.092851	lokálky	-0.1715506
-5.092851	lorenc	-0.1848862
-5.092851	loukota	-0.1813891
-5.092851	loun	-0.1886043
-4.791889	lounech	-0.1843094
-4.791889	louny	-0.1285133
-5.092851	lovosic	-0.1873052
-5.092851	lovosicích	-0.1860445
-3.979033	luhačovic	-0.2633882
-4.61582	luhačovice	-0.1258073
-4.791889	lukešová	-0.361405
-4.791889	lužan	-0.171299
-5.092851	lužanech	-0.1870273
-4.39399	lužnicí	-0.115642
-5.092851	lysou	-0.1294624
-4.791889	lysá	-0.3685045
-4.314813	lysé	-0.2244133
-5.092851	láme	-0.1885201
-3.376981	lázní	-0.2658287
-4.013794	lázních	-0.2206912
-3.837707	lázně	-0.2670924
-5.092851	láčka	-0.1840084
-4.791889	lépe	-0.1880535
-5.092851	léto	-0.1883588
-5.092851	líbil	-0.1294624
-5.092851	líbit	-0.1885447
-5.092851	líbí	-0.1294624
-5.092851	lípy	-0.1294624
-4.314813	lístek	-0.1176446
-4.791889	lístky	-0.1817312
-4.791889	líto	-0.1793203
-4.791889	lůžka	-0.1827558
-5.092851	lůžkový	-0.1846209
-4.791889	lůžku	-0.3601485
-5.092851	machačka	-0.1840084
-5.092851	macková	-0.1813891
-5.092851	majer	-0.1840084
-5.092851	majzlíková	-0.1840084
-3.979033	mají	-0.2257794
-5.092851	malkovská	-0.1883167
-4.791889	malou	-0.1886008
-4.791889	malá	-0.1813856
-4.61582	malé	-0.2999731
-5.092851	malému	-0.1827416
-4.13873	malý	-0.3405046
-4.791889	malým	-0.3686132
-4.490893	manažer	-0.1943519
-5.092851	manětín	-0.1872384
-5.092851	manětína	-0.1715506
-4.791889	manžel	-0.1885973
-5.092851	manželce	-0.1885938
-5.092851	marburg	-0.1294624
-5.092851	marburgu	-0.1294624
-5.092851	marek	-0.1840084
-5.092851	mareš	-0.1840084
-5.092851	marešová	-0.1840084
-4.791889	maria	-0.3686167
-5.092851	mariánová	-0.1840084
-4.247869	mariánské	-0.3842003
-4.490893	mariánský	-0.6802143
-3.368709	mariánských	-0.5931928
-5.092851	marková	-0.1877796
-4.791889	marktredwitz	-0.1804435
-4.791889	marktredwitzu	-0.1756624
-5.092851	martan	-0.1840084
-4.791889	martin	-0.1885973
-5.092851	marták	-0.1840084
-5.092851	martínková	-0.1840084
-4.092973	masarykova	-0.2877206
-3.916887	masarykovo	-0.2083463
-4.791889	matky	-0.3679606
-5.092851	matoušková	-0.1848862
-5.092851	matějka	-0.1840084
-5.092851	maxa	-0.1848862
-4.490893	maximálně	-0.188424
-5.092851	maříková	-0.1840084
-5.092851	mašek	-0.1877796
-5.092851	mašina	-0.1852608
-4.61582	mašková	-0.2916297
-5.092851	maťovcová	-0.1848862
-5.092851	menších	-0.1886043
-5.092851	mertlová	-0.1848862
-4.61582	metrem	-0.1760523
-3.439772	mezi	-0.4235262
-3.645824	mezinárodní	-0.543835
-5.092851	mezinárodního	-0.188429
-3.601621	mezitím	-0.498669
-4.61582	meziříčí	-0.107732
-2.512062	mi	-0.6815745
-4.314813	mikulov	-0.5748334
-4.39399	mikulova	-0.09775644
-5.092851	milan	-0.1886043
-5.092851	milena	-0.1886043
-5.092851	milerová	-0.1840084
-4.490893	milevska	-0.1744072
-4.61582	milevsko	-0.1838985
-4.314813	milevsku	-0.1233656
-5.092851	mileč	-0.1885938
-4.791889	milíkova	-0.3094783
-5.092851	milíkově	-0.1294624
-4.791889	mimo	-0.1885868
-4.791889	mimořádný	-0.1770796
-5.092851	minaříková	-0.1840084
-4.791889	minimálně	-0.3661415
-5.092851	ministerstvu	-0.1886043
-3.430227	minut	-0.5262312
-5.092851	minutami	-0.1774826
-4.61582	minutu	-0.1862525
-4.051582	minuty	-0.2749279
-5.092851	minutě	-0.1715506
-4.791889	mirošov	-0.3677955
-3.79195	mirošova	-0.1733909
-4.61582	mirošově	-0.12116
-5.092851	mišovská	-0.1848862
-3.695042	mladotic	-0.1748159
-4.013794	mladotice	-0.2394112
-4.013794	mladoticích	-0.3282085
-3.080148	mladá	-2.198793
-5.092851	mladé	-0.1885973
-4.791889	mladý	-0.1876813
-5.092851	mluvila	-0.1885973
-5.092851	mluvit	-0.1886043
-5.092851	mluvíme	-0.1886008
-4.791889	mlýn	-0.1278928
-5.092851	mlýna	-0.1883974
-3.71277	mnohokrát	-1.386763
-4.791889	mnou	-0.127913
-3.630584	mně	-0.2450069
-2.508656	moc	-1.229627
-5.092851	moci	-0.1294624
-2.835308	mockrát	-1.499586
-3.979033	mohl	-0.3057311
-3.051593	mohla	-1.009593
-4.18988	mohli	-0.3628427
-4.791889	mohlo	-0.1885377
-4.791889	mohou	-0.1798036
-3.750558	moment	-0.2599821
-5.092851	moravou	-0.1715506
-4.247869	moravě	-0.1516492
-5.092851	morávce	-0.1856705
-5.092851	morávka	-0.1883869
-5.092851	morávku	-0.1875864
-4.490893	morávky	-0.1004147
-4.791889	most	-0.3094783
-4.013794	mostu	-0.2920929
-5.092851	motorové	-0.1830364
-4.314813	motorový	-0.344432
-4.39399	možno	-0.1742079
-4.247869	možnost	-0.2675935
-4.490893	možnosti	-0.2081112
-4.314813	možná	-0.09304199
-4.61582	možné	-0.1191488
-4.013794	možný	-0.3312948
-5.092851	mrázek	-0.1848862
-4.39399	mu	-0.1833772
-3.86253	musel	-0.2531243
-3.678009	musela	-0.2324524
-4.791889	museli	-0.1852397
-4.13873	muset	-0.142916
-3.71277	musí	-0.4041705
-4.18988	musím	-0.1783701
-4.61582	musíme	-0.2884263
-3.490924	musíte	-0.2110896
-5.092851	mutějovic	-0.1883658
-5.092851	mutějovice	-0.1294624
-3.814226	my	-0.356018
-4.61582	myslel	-0.1839446
-4.18988	myslela	-0.1605613
-4.791889	mysli	-0.1851902
-3.548915	myslím	-0.3877972
-3.459516	myslíte	-0.3951598
-5.092851	myšková	-0.1885131
-3.322133	má	-0.4121708
-4.490893	málo	-0.2097993
-3.173908	mám	-0.5014313
-5.092851	máma	-0.18727
-3.524782	máme	-0.2593501
-5.092851	mání	-0.1883658
-3.059562	máte	-0.3479209
-5.092851	média	-0.1886043
-5.092851	míková	-0.1840084
-5.092851	mínus	-0.1294624
-4.61582	míněno	-0.6631014
-5.092851	místek	-0.1827416
-5.092851	místenka	-0.1294624
-5.092851	místenkovou	-0.1885622
-5.092851	místenkové	-0.1881658
-4.791889	místenkový	-0.1266775
-4.791889	místenku	-0.1794779
-4.791889	místenky	-0.1706929
-5.092851	místku	-0.1294624
-5.092851	místním	-0.1886043
-4.314813	místo	-0.6371759
-4.791889	místě	-0.1774394
-3.695042	mít	-0.1080572
-4.490893	münchena	-0.2569002
-4.791889	münchenský	-0.1761533
-4.61582	müncheně	-0.180347
-5.092851	mých	-0.1886008
-3.661618	mě	-0.3114301
-4.18988	mějte	-0.9518484
-3.615861	měl	-0.1986798
-3.501919	měla	-0.3273837
-4.791889	měli	-0.1856599
-3.888859	mělo	-0.349335
-4.791889	měly	-0.1881588
-4.791889	měnily	-0.1856387
-4.39399	měnit	-0.1844829
-4.39399	mění	-0.248662
-3.86253	města	-0.3854773
-3.814226	město	-0.3691575
-4.61582	městě	-0.2212425
-4.247869	měsíční	-0.1099942
-3.385414	může	-0.8748008
-4.61582	můžeme	-0.1884535
-3.088664	můžete	-0.7309733
-3.360591	můžu	-0.6367697
-2.114806	na	-0.5911448
-4.791889	nabídla	-0.1860339
-3.561504	nabídnout	-0.4259412
-4.791889	nabídnu	-0.1818416
-5.092851	nabízela	-0.1878709
-3.561504	nad	-0.6556894
-4.61582	nadiktovala	-0.1862525
-4.39399	nadiktovat	-0.349596
-4.61582	nadiktuji	-0.1796604
-5.092851	nahlas	-0.1848862
-5.092851	nahlásit	-0.1881658
-5.092851	nahoru	-0.1819911
-5.092851	najdete	-0.18727
-4.490893	najít	-0.1831429
-5.092851	nalezené	-0.1294624
-4.791889	naopak	-0.1288071
-5.092851	napište	-0.1883518
-5.092851	naplánuji	-0.1843767
-5.092851	naproti	-0.1819911
-5.092851	napsali	-0.1886008
-4.791889	napsaný	-0.1285495
-4.13873	napíšu	-0.1213434
-5.092851	narození	-0.1861785
-1.821843	nashledanou	-2.382161
-5.092851	nasměrovat	-0.1804792
-4.791889	nastoupit	-0.1863336
-5.092851	nastupovat	-0.1878077
-5.092851	nastupují	-0.1886043
-4.61582	navazoval	-0.1827594
-4.61582	navazovalo	-0.1808648
-5.092851	navazovat	-0.1294624
-4.61582	navazuje	-0.1826314
-5.092851	navečer	-0.1294624
-5.092851	naváže	-0.1801326
-4.247869	navíc	-0.1271513
-3.750558	nazpět	-0.1538841
-4.791889	naříkat	-0.1881553
-4.791889	naříkám	-0.1877445
-5.092851	našel	-0.1875864
-4.791889	našla	-0.1870414
-2.391419	ne	-0.4935779
-4.61582	nebere	-0.1244602
-5.092851	neberou	-0.1885938
-2.253509	nebo	-0.4787272
-4.314813	nebojte	-0.8386182
-3.837707	nebude	-0.185045
-4.39399	nebudete	-0.2426362
-5.092851	nebudou	-0.1861785
-4.791889	nebudu	-0.1884886
-5.092851	nebydlíte	-0.1886043
-4.791889	nebyl	-0.129362
-4.791889	nebyla	-0.1248908
-4.791889	nebylo	-0.1864393
-5.092851	necelou	-0.1886008
-5.092851	nechala	-0.1885833
-4.791889	nechat	-0.1876426
-4.13873	nechcete	-0.2604291
-5.092851	nechci	-0.1774826
-5.092851	nechte	-0.1885131
-5.092851	nechtěl	-0.1848862
-5.092851	nechtěla	-0.1852361
-5.092851	nechutná	-0.1885903
-4.61582	nechám	-0.2966224
-5.092851	necháme	-0.1882711
-4.490893	necháte	-0.488989
-4.791889	nedalo	-0.1838772
-4.61582	nedostali	-0.183402
-4.791889	nedostanete	-0.1287025
-4.490893	nedostanu	-0.1756623
-5.092851	nedovolám	-0.1862137
-5.092851	nedovoláte	-0.1885377
-5.092851	nedočkáte	-0.1294624
-5.092851	nedvědová	-0.1813891
-4.791889	nedá	-0.3681291
-4.791889	neděje	-0.1868056
-3.645824	neděle	-0.2809947
-5.092851	nedělejte	-0.1859175
-2.673031	neděli	-0.4167133
-5.092851	nedělá	-0.1878112
-4.791889	neexistuje	-0.1285294
-3.385414	nejbližší	-0.4285722
-5.092851	nejblíž	-0.1885131
-4.314813	nejde	-0.3807004
-5.092851	nejdu	-0.1294624
-4.791889	nejdéle	-0.1218719
-3.661618	nejdříve	-0.3516292
-4.791889	nejdřívějším	-0.1098597
-3.051593	nejede	-0.5350425
-5.092851	nejedou	-0.1885201
-5.092851	nejel	-0.1877199
-5.092851	nejela	-0.1715506
-5.092851	nejezdilo	-0.1294624
-3.630584	nejezdí	-0.3916255
-3.979033	nejlepší	-0.2183593
-4.490893	nejlépe	-0.1235204
-5.092851	nejméně	-0.1863195
-5.092851	nejnižší	-0.1886043
-4.490893	nejpozději	-0.1769823
-5.092851	nejradši	-0.1884079
-5.092851	nejrozumnější	-0.1871047
-4.791889	nejrychlejší	-0.1885622
-4.791889	nejsem	-0.188057
-5.092851	nejsnazší	-0.185614
-4.314813	nejsou	-0.1749905
-5.092851	nejspíš	-0.1867809
-5.092851	nejvyšší	-0.1886008
-4.791889	nekvasov	-0.1237036
-4.61582	nekvasovech	-0.12116
-4.490893	nekvasovy	-0.1747258
-4.314813	nelekejte	-0.8386182
-5.092851	nelíbil	-0.1294624
-5.092851	nemají	-0.1885973
-5.092851	nemilkov	-0.1859175
-4.61582	nemilkova	-0.1096705
-5.092851	nemluvila	-0.1294624
-5.092851	nemohl	-0.1885447
-4.61582	nemohla	-0.2987583
-5.092851	nemohou	-0.1882852
-4.314813	nemohu	-0.2875072
-4.61582	nemusela	-0.1873298
-4.791889	nemuseli	-0.186041
-4.39399	nemuselo	-0.1754167
-3.916887	nemusí	-0.2830735
-4.61582	nemusím	-0.1838383
-4.314813	nemusíte	-0.176883
-4.490893	nemá	-0.268147
-4.490893	nemám	-0.1813035
-4.39399	nemáme	-0.1221171
-3.148503	nemáte	-1.038706
-5.092851	nemění	-0.1862137
-4.791889	nemůže	-0.1290926
-4.39399	nemůžete	-0.1817668
-5.092851	nenabízela	-0.188243
-5.092851	nenajdu	-0.1885482
-5.092851	nenašel	-0.1878112
-2.501922	není	-1.006731
-3.888859	neplatí	-0.2840579
-5.092851	neplánuji	-0.1294624
-3.731253	nepomuk	-0.1980151
-3.376981	nepomuka	-0.2442056
-5.092851	nepomukem	-0.1294624
-3.501919	nepomuku	-0.3359219
-4.791889	nepomůžu	-0.3094783
-5.092851	nepotěším	-0.185063
-5.092851	nepotřebujete	-0.1868408
-5.092851	nepotřebuji	-0.1852608
-5.092851	nepotřebují	-0.1881132
-4.247869	nepovím	-0.1713666
-5.092851	neprozradila	-0.1866119
-4.791889	neptám	-0.1862067
-4.791889	nepřesedá	-0.3662296
-5.092851	nepřesedám	-0.1294624
-5.092851	nepřijel	-0.1294624
-5.092851	nepřijeli	-0.1846209
-4.791889	nepřipadá	-0.1098597
-5.092851	nepřišlo	-0.1884886
-5.092851	nepůjdeme	-0.1294624
-5.092851	neradila	-0.185501
-5.092851	neratovic	-0.1865027
-4.791889	neratovice	-0.169141
-4.791889	nerozumím	-0.1251951
-5.092851	nerozuměla	-0.1294624
-4.490893	neslyším	-0.4215932
-4.791889	nesmí	-0.1288956
-4.39399	nestaví	-0.1251221
-5.092851	nestačím	-0.1774826
-4.791889	nestihl	-0.1267179
-4.61582	nestihla	-0.2938151
-4.791889	nestihli	-0.1294463
-4.18988	nestihnete	-0.1825125
-4.61582	nestihnu	-0.2383594
-4.61582	nestíháte	-0.2311195
-5.092851	neujede	-0.1843625
-4.314813	nevadilo	-0.2381371
-3.86253	nevadí	-0.4749357
-5.092851	nevyzvánělo	-0.1848862
-5.092851	neví	-0.1885622
-5.092851	nevídaný	-0.1294624
-3.006626	nevím	-0.3672487
-5.092851	nevíme	-0.1801326
-3.469734	nevíte	-0.4299238
-4.791889	nevěděl	-0.1282918
-4.791889	nevěděla	-0.3094783
-5.092851	nezachytila	-0.1843625
-4.61582	nezapomeňte	-0.1793346
-5.092851	nezastavuje	-0.1885903
-5.092851	nezastaví	-0.1294624
-4.314813	nezlobte	-0.6354623
-5.092851	nezměnil	-0.1885201
-5.092851	nezměnilo	-0.1850099
-5.092851	neznašov	-0.1868443
-3.71277	nezvěstic	-0.278212
-3.916887	nezvěstice	-0.1831587
-5.092851	nezvěsticemi	-0.1294624
-4.314813	nezvěsticích	-0.2049094
-5.092851	nečekala	-0.1871997
-4.61582	nečeká	-0.1827274
-5.092851	nečekáte	-0.1883588
-5.092851	nečesalová	-0.1813891
-4.791889	neřeknu	-0.1251951
-4.61582	neříkejte	-0.2980088
-4.791889	nešlo	-0.1283119
-4.092973	než	-0.3457642
-2.943767	nic	-0.5659112
-4.39399	nich	-0.1172894
-5.092851	nijak	-0.1886043
-5.092851	nikam	-0.1862137
-4.61582	nikde	-0.124574
-5.092851	nikoliv	-0.1885096
-4.247869	nimi	-0.1202951
-5.092851	ničím	-0.1885938
-2.083536	no	-0.5433296
-4.13873	noc	-0.4295833
-3.979033	noci	-0.2593617
-5.092851	nohrpek	-0.1840084
-4.791889	norman	-0.1767122
-3.469734	normální	-0.7532505
-3.837707	normálně	-0.1599532
-5.092851	nostalgický	-0.1861785
-4.791889	novinách	-0.3679816
-5.092851	novosadová	-0.1813891
-5.092851	novotná	-0.1813891
-5.092851	novou	-0.1885903
-4.791889	nová	-0.1813749
-4.791889	novák	-0.3640243
-5.092851	nováková	-0.1885903
-4.13873	nového	-0.391034
-3.695042	nový	-0.6600022
-4.39399	novým	-0.4090306
-4.61582	nově	-0.1166858
-4.61582	noční	-0.1675726
-5.092851	nočním	-0.1856705
-1.882134	nula	-1.363729
-5.092851	nymburk	-0.1883518
-4.791889	nymburka	-0.128634
-5.092851	nádherný	-0.1831962
-5.092851	nádražní	-0.1845572
-2.943767	nádraží	-0.4088606
-3.678009	náhodou	-0.2206574
-4.61582	náhradní	-0.188243
-5.092851	náhubek	-0.1843767
-4.791889	nákladní	-0.1863441
-3.814226	nám	-0.341697
-5.092851	nápodobně	-0.1820125
-5.092851	nárok	-0.1852608
-4.247869	nás	-0.1580565
-4.39399	následující	-0.1859058
-5.092851	následujícího	-0.1885903
-5.092851	nástup	-0.1294624
-4.61582	nástupišti	-0.2325632
-3.394015	nástupiště	-0.3678041
-4.092973	návaznost	-0.3941733
-4.791889	název	-0.1875267
-4.490893	názvu	-0.0994429
-4.791889	náš	-0.1885692
-3.888859	ním	-0.3309968
-5.092851	níž	-0.1860445
-4.61582	nürnberg	-0.1279371
-3.837707	nürnbergu	-0.2433448
-4.18988	nýrska	-0.2146971
-5.092851	nýrsko	-0.1880044
-3.459516	nýřan	-0.3013496
-3.946849	nýřanech	-0.507264
-4.13873	nýřany	-0.1278552
-4.61582	ně	-0.1882957
-2.770767	něco	-0.5548002
-5.092851	něho	-0.1882992
-4.490893	něj	-0.1878885
-2.702052	nějak	-0.4427688
-4.18988	nějakou	-0.2690706
-4.092973	nějaká	-0.2492586
-4.18988	nějaké	-0.4264832
-5.092851	nějakého	-0.1886043
-2.636621	nějaký	-0.5463423
-4.791889	nějakých	-0.1860797
-4.61582	nějakým	-0.18845
-4.314813	někam	-0.1205658
-4.61582	někde	-0.1157747
-4.791889	někdo	-0.1294584
-2.847474	někdy	-0.712572
-5.092851	někoho	-0.1880746
-4.61582	několik	-0.1885833
-5.092851	několikrát	-0.1885237
-5.092851	některý	-0.1881658
-4.61582	něm	-0.2407046
-4.39399	německa	-0.4677963
-4.61582	německé	-0.2998188
-3.394015	o	-0.2924858
-3.79195	oba	-0.5225924
-5.092851	obcích	-0.1294624
-4.61582	obec	-0.1817027
-5.092851	objet	-0.1877937
-5.092851	oboje	-0.1804792
-4.13873	obojí	-0.3023296
-5.092851	obora	-0.1828908
-5.092851	oboru	-0.1835865
-4.61582	obory	-0.1801254
-4.61582	obou	-0.1851301
-4.61582	oboře	-0.1095696
-4.61582	obráceně	-0.1250572
-4.61582	obsazená	-0.1877937
-4.791889	obyčejná	-0.3685536
-4.61582	obyčejný	-0.1812644
-5.092851	občanka	-0.1852608
-4.791889	občanku	-0.1772451
-5.092851	občanská	-0.1774826
-4.791889	občas	-0.1804721
-4.61582	obě	-0.1885026
-4.314813	oběda	-0.2321412
-4.092973	obědě	-0.3800367
-4.61582	ochotu	-0.2332792
-2.899862	od	-0.5324433
-5.092851	odbavuje	-0.1294624
-5.092851	odbor	-0.1871047
-5.092851	odevzdat	-0.1883764
-4.791889	odjedeme	-0.1791519
-4.051582	odjedete	-0.3870424
-5.092851	odjedu	-0.1852043
-4.61582	odjel	-0.1875231
-5.092851	odjela	-0.1883623
-5.092851	odjeli	-0.1876145
-5.092851	odjelo	-0.1715506
-4.13873	odjet	-0.4267229
-3.4802	odjezd	-0.4069356
-5.092851	odjezdech	-0.1885657
-4.247869	odjezdem	-0.3374088
-3.946849	odjezdy	-0.4421892
-5.092851	odjezdů	-0.1886043
-2.931618	odjíždí	-0.5467169
-5.092851	odjíždím	-0.1819911
-4.092973	odjíždíte	-0.21293
-4.61582	odjíždějí	-0.2968026
-3.574469	odjížděl	-0.3993332
-4.18988	odjížděla	-0.2880677
-3.814226	odjíždělo	-0.4057885
-5.092851	odjížděly	-0.1858646
-3.750558	odjíždět	-0.248172
-5.092851	odklonem	-0.1881834
-4.092973	odkud	-0.3797893
-4.791889	odkudpak	-0.120135
-5.092851	odněkud	-0.1294624
-5.092851	odpojují	-0.1715506
-2.684747	odpoledne	-0.4637098
-4.18988	odpolední	-0.2125733
-4.39399	odpoledních	-0.8335324
-4.39399	odra	-0.1779099
-4.791889	odrou	-0.3094783
-4.791889	odry	-0.1812358
-4.247869	odsud	-0.3828144
-4.13873	odtud	-0.3766485
-4.61582	ohledně	-0.1885482
-5.092851	ohří	-0.1878534
-5.092851	okamžitě	-0.188243
-3.206495	okolo	-0.5773519
-4.18988	okříšek	-0.1396395
-4.314813	okříšky	-0.2893626
-4.791889	okříškách	-0.1197367
-4.013794	olomouc	-0.1661153
-3.695042	olomouce	-0.2726067
-4.247869	olomouci	-0.243456
-5.092851	omezená	-0.1886043
-5.092851	omezené	-0.1886043
-4.61582	omezení	-0.172574
-4.791889	omezený	-0.1098597
-4.61582	omlenice	-0.1127375
-4.791889	omlouvám	-0.3662296
-3.5132	on	-0.3214864
-4.18988	ona	-0.2518049
-3.979033	oni	-0.2468641
-3.4802	ono	-0.4813874
-5.092851	oo	-0.1879447
-5.092851	opakuji	-0.1294624
-4.61582	opavy	-0.1282716
-4.39399	opravdu	-0.2496535
-5.092851	opravňoval	-0.1885307
-5.092851	optat	-0.1883097
-3.731253	opět	-0.7223812
-4.791889	orientačně	-0.128799
-4.39399	orlicí	-0.1703863
-5.092851	ortman	-0.1840084
-4.791889	oseka	-0.1831891
-4.61582	oseku	-0.1064547
-2.048447	osm	-0.9040864
-3.979033	osma	-1.181306
-4.13873	osmdesát	-0.3303115
-3.946849	osmi	-0.3314294
-5.092851	osmička	-0.188222
-5.092851	osmičkou	-0.1885096
-2.31556	osmnáct	-1.031778
-5.092851	osmnácti	-0.1885868
-3.86253	osmnácté	-0.5101579
-4.13873	osmou	-0.1854637
-5.092851	osmá	-0.1886043
-3.043768	osmé	-0.5719408
-3.770761	osmého	-0.3315034
-5.092851	osoba	-0.1885026
-2.428345	osobní	-0.6200861
-3.645824	osobním	-0.2952666
-5.092851	osobními	-0.1885763
-4.791889	osobu	-0.1246105
-5.092851	osobák	-0.188222
-4.791889	ostatní	-0.179442
-4.013794	ostrava	-0.3147391
-5.092851	ostravan	-0.1715506
-4.61582	ostravu	-0.1179954
-3.459516	ostravy	-0.2543945
-3.837707	ostravě	-0.366465
-5.092851	osvračína	-0.188222
-5.092851	ot	-0.1813891
-5.092851	otočí	-0.1294624
-5.092851	otravovat	-0.1875864
-5.092851	otravuji	-0.1848862
-4.247869	otrokovic	-0.3135425
-4.490893	otrokovice	-0.3076708
-5.092851	otrokovicích	-0.1827416
-5.092851	otázka	-0.1885377
-5.092851	otázková	-0.1840084
-5.092851	otázku	-0.188215
-4.791889	ověřit	-0.1875759
-5.092851	ovšem	-0.1862137
-4.791889	ošelína	-0.125625
-2.022949	padesát	-1.426839
-4.791889	padesáti	-0.3686132
-2.835308	pak	-0.6268978
-2.727499	pane	-0.3904377
-2.489843	paní	-0.3813003
-5.092851	papír	-0.1294624
-4.791889	papíry	-0.125625
-3.645824	pardon	-0.127827
-3.946849	pardubic	-0.1224884
-4.092973	pardubice	-0.2289377
-4.18988	pardubicích	-0.17862
-5.092851	paris	-0.1774826
-5.092851	parkem	-0.1294624
-4.092973	parní	-0.2607361
-5.092851	partou	-0.1885938
-4.791889	paráda	-0.1835262
-4.791889	pas	-0.1851867
-4.791889	pastuchovic	-0.1255601
-2.378657	patnáct	-0.8678828
-3.770761	patnácti	-0.5742474
-4.490893	patnáctou	-0.2684773
-5.092851	patnáctá	-0.1886008
-3.86253	patnácté	-0.5049042
-5.092851	patrně	-0.1801326
-5.092851	patrovský	-0.1813891
-4.791889	pauza	-0.1760667
-4.791889	pavlíková	-0.3640243
-5.092851	pazderník	-0.1883658
-4.791889	pačejov	-0.1278646
-4.39399	pačejova	-0.1046761
-5.092851	pačejově	-0.1882676
-4.791889	pechová	-0.1845218
-5.092851	pekárek	-0.1848862
-5.092851	pendlovat	-0.1774826
-4.61582	peníze	-0.240809
-3.888859	perfektní	-0.4065702
-4.791889	perfektně	-0.173664
-5.092851	permanentka	-0.1294624
-5.092851	pernarec	-0.1882536
-4.791889	perner	-0.1699103
-5.092851	pes	-0.1294624
-5.092851	petra	-0.1886043
-5.092851	petrohrad	-0.1294624
-5.092851	petrohradu	-0.1294624
-5.092851	petrová	-0.1877796
-5.092851	petrášek	-0.1848862
-5.092851	pešek	-0.1848862
-4.39399	pište	-0.5274513
-5.092851	plakát	-0.1294624
-4.39399	planá	-0.1880435
-3.574469	plané	-0.3143252
-4.18988	plas	-0.2728006
-5.092851	plasích	-0.1872559
-4.61582	platil	-0.2993661
-5.092851	platili	-0.1294624
-4.247869	platit	-0.1717098
-5.092851	platný	-0.1885377
-3.71277	platí	-0.2559946
-5.092851	platím	-0.1885798
-4.013794	plešnic	-0.441977
-4.18988	plešnice	-0.3046062
-4.791889	plešnicích	-0.1795029
-4.791889	plná	-0.1292213
-4.791889	plné	-0.1877656
-4.61582	plný	-0.2957312
-4.61582	plus	-0.1843838
-3.71277	plzence	-0.3752048
-5.092851	plzencem	-0.1774826
-4.490893	plzenec	-0.1092835
-2.720075	plzeň	-0.3156929
-5.092851	plzeňského	-0.1881132
-5.092851	plzeňský	-0.185614
-2.774923	plzni	-0.7648392
-5.092851	plzní	-0.1774826
-2.061175	plzně	-0.6750505
-2.676346	po	-0.9452353
-5.092851	poběžovic	-0.1884184
-4.61582	poběžovice	-0.2394892
-5.092851	poběžovicích	-0.1715506
-5.092851	pochopitelně	-0.1850099
-5.092851	pocit	-0.1294624
-4.791889	pod	-0.3686167
-4.314813	podat	-0.1622001
-5.092851	podbořanech	-0.1860445
-4.39399	podej	-0.2484429
-5.092851	podejem	-0.1885868
-5.092851	podeji	-0.1878534
-3.86253	podle	-0.4289121
-5.092851	podlipský	-0.1813891
-5.092851	podmínek	-0.1294624
-5.092851	podnik	-0.1294624
-5.092851	podstatně	-0.1861785
-4.39399	podstatě	-0.2424964
-4.490893	podvečer	-0.2098395
-5.092851	podáte	-0.1856705
-5.092851	podávat	-0.1294624
-5.092851	podává	-0.1862137
-4.791889	podáváte	-0.3645731
-4.247869	podívat	-0.2749304
-4.247869	podívám	-0.1841784
-5.092851	podíváme	-0.188215
-3.678009	pojede	-0.1972652
-4.39399	pojedeme	-0.2278962
-3.223753	pojedete	-0.42172
-4.791889	pojedou	-0.1870906
-4.051582	pojedu	-0.3122069
-4.247869	pokladna	-0.2536595
-3.979033	pokladnu	-0.2155079
-4.13873	pokladny	-0.1732174
-4.61582	pokladní	-0.295384
-4.490893	pokladně	-0.1104476
-4.791889	pokorný	-0.361405
-4.791889	pokračování	-0.181004
-4.61582	pokračuje	-0.2913831
-5.092851	pokračujeme	-0.1875864
-3.731253	pokud	-0.3720042
-3.420887	poledne	-0.431084
-4.39399	polednem	-0.2343149
-4.13873	poledni	-0.2669681
-4.791889	polovina	-0.1830151
-4.314813	polovinu	-0.3849715
-3.750558	poloviční	-0.5165277
-5.092851	polsku	-0.1294624
-5.092851	pomalý	-0.1294624
-5.092851	pomohla	-0.1848862
-3.286805	pondělí	-0.2797033
-5.092851	popradu	-0.1883658
-4.39399	poprosit	-0.4041325
-5.092851	poradila	-0.1876145
-4.314813	poradit	-0.1674944
-5.092851	poradíte	-0.18727
-5.092851	poraďte	-0.1885692
-5.092851	poruba	-0.1801326
-5.092851	porubu	-0.1877199
-4.18988	poruby	-0.3580766
-4.791889	porubě	-0.128324
-4.791889	poslala	-0.187365
-4.791889	poslat	-0.1885938
-5.092851	poslechnete	-0.1885131
-3.153466	poslední	-0.4634583
-5.092851	posledních	-0.1294624
-4.791889	posledním	-0.171547
-5.092851	posledně	-0.1846209
-5.092851	poslouchat	-0.1886043
-4.13873	poslouchejte	-0.3167509
-4.791889	poslouchám	-0.1842422
-5.092851	postaví	-0.1830364
-4.61582	postoloprt	-0.1669797
-5.092851	postoloprty	-0.1864428
-5.092851	postřekov	-0.1294624
-5.092851	posílal	-0.1804792
-5.092851	posílat	-0.1886008
-2.302702	potom	-0.5927169
-5.092851	potvrdit	-0.1875864
-5.092851	potřeba	-0.1886043
-2.821145	potřeboval	-0.7198913
-2.642738	potřebovala	-0.6626446
-4.791889	potřebovali	-0.1885131
-4.791889	potřebovat	-0.1878393
-4.18988	potřebujete	-0.2067202
-3.587833	potřebuju	-0.2670101
-5.092851	potřebují	-0.1885798
-5.092851	potůčků	-0.1875864
-5.092851	pouchová	-0.1813891
-4.791889	pouzdrem	-0.11669
-3.837707	pouze	-0.4158205
-4.18988	použít	-0.3022471
-4.791889	povinnost	-0.1287266
-4.791889	povinná	-0.1846174
-4.791889	povinně	-0.1885973
-5.092851	povolena	-0.1294624
-4.61582	poví	-0.1291449
-4.490893	povím	-0.1849887
-3.645824	pozdě	-0.3945287
-3.247887	později	-0.5361553
-3.837707	pozdější	-0.19329
-4.490893	pozdějšího	-0.2072302
-5.092851	poznala	-0.1871997
-5.092851	poznamenám	-0.1852043
-5.092851	poznámka	-0.1885973
-5.092851	poznámku	-0.1879587
-4.61582	pozor	-0.1818559
-5.092851	pozítří	-0.1801326
-4.791889	počet	-0.1872243
-4.791889	počkat	-0.1851902
-3.561504	počkejte	-0.2601327
-4.791889	počkání	-0.1277395
-5.092851	počkáte	-0.1850099
-5.092851	počtem	-0.1860445
-4.61582	počínaje	-0.1878955
-4.791889	počítače	-0.1878464
-4.791889	počítači	-0.1790982
-5.092851	počítám	-0.1868443
-4.247869	pořád	-0.1563287
-4.490893	pořádku	-0.4201495
-4.490893	poříčí	-0.1237077
-4.247869	pošlu	-0.2509837
-4.39399	pošumaví	-0.4608061
-5.092851	požadovat	-0.188057
-5.092851	prachatic	-0.1852361
-4.791889	prachatice	-0.3094783
-5.092851	prachaticích	-0.1294624
-3.601621	pracovní	-1.312755
-3.293644	praha	-0.4799012
-5.092851	prahou	-0.1879447
-3.247887	prahu	-0.32879
-2.372828	prahy	-0.6245795
-5.092851	pravda	-0.1294624
-4.791889	pravidelně	-0.1885798
-2.709171	praze	-0.6887008
-5.092851	pražskou	-0.1886043
-5.092851	pražského	-0.1884675
-5.092851	presol	-0.1294624
-5.092851	prestl	-0.1813891
-5.092851	prešová	-0.1840084
-3.645824	pro	-0.2500506
-4.490893	problém	-0.2074082
-4.247869	procent	-0.2023489
-4.61582	procentní	-0.2997556
-4.61582	procentně	-0.1274289
-5.092851	procházková	-0.1813891
-4.791889	proclít	-0.1878639
-5.092851	prodeji	-0.1843625
-5.092851	prodávat	-0.1881729
-5.092851	prodáváme	-0.1864428
-5.092851	projde	-0.1883237
-4.791889	projede	-0.3094783
-4.791889	projíždí	-0.177443
-5.092851	prosbou	-0.1879517
-3.33711	prosbu	-0.4578606
-4.092973	prosil	-0.3302703
-3.587833	prosila	-0.2570996
-5.092851	prosince	-0.1774826
-3.837707	prostě	-0.1522159
-5.092851	prostřední	-0.1827416
-1.782931	prosím	-2.210421
-4.61582	protivce	-0.1178593
-5.092851	protivín	-0.1294624
-4.092973	protivína	-0.1322617
-4.490893	protivíně	-0.1687558
-4.791889	proto	-0.1844227
-3.5132	protože	-0.2339371
-4.791889	prozradit	-0.1869534
-4.39399	prozradíte	-0.8322226
-4.490893	prozraďte	-0.1695771
-4.791889	proč	-0.1865555
-3.148503	první	-0.3044485
-3.750558	prvního	-0.3261813
-4.490893	prvním	-0.1711785
-5.092851	pryč	-0.1294624
-5.092851	práci	-0.1877445
-3.750558	právě	-0.08403978
-4.791889	prý	-0.1835794
-5.092851	průběhu	-0.1881343
-4.39399	průkaz	-0.1759296
-4.61582	průkazka	-0.2400852
-5.092851	průkazkou	-0.1774826
-4.39399	průkazku	-0.1825005
-4.791889	průkazky	-0.1293499
-5.092851	průměru	-0.1863195
-5.092851	průvodčí	-0.1801326
-5.092851	psáno	-0.1715506
-4.791889	psát	-0.1819413
-5.092851	ptala	-0.1804792
-5.092851	ptá	-0.1886043
-5.092851	ptám	-0.1862137
-5.092851	pár	-0.1884465
-4.791889	pára	-0.1282313
-2.982397	pátek	-0.3940477
-5.092851	pátku	-0.1852608
-4.247869	pátou	-0.2580295
-3.217924	páté	-0.5777557
-4.13873	pátého	-0.23893
-4.791889	pátý	-0.1769968
-5.092851	páře	-0.1774826
-4.490893	písek	-0.4280636
-3.645824	písku	-0.3284351
-4.791889	píše	-0.1294584
-4.490893	píši	-0.1032489
-5.092851	pěknou	-0.1294624
-4.092973	pěkný	-0.2560697
-2.673031	pěkně	-0.5632553
-5.092851	pěničková	-0.1813891
-2.198671	pět	-0.6935874
-4.490893	pěta	-0.2591672
-4.314813	pěti	-0.2265019
-5.092851	pětka	-0.1860445
-5.092851	pěšky	-0.1294624
-3.212172	pňovan	-0.3869509
-3.490924	pňovanech	-0.4765295
-5.092851	pňovanským	-0.1886043
-3.587833	pňovany	-0.603498
-5.092851	přece	-0.1881132
-4.791889	přecházet	-0.1830755
-5.092851	přecházíte	-0.1852608
-5.092851	přeci	-0.1885903
-3.286805	před	-0.4753504
-5.092851	předejdu	-0.1715506
-5.092851	předek	-0.1864393
-4.39399	předem	-0.3460233
-3.411743	předměstí	-0.3109478
-5.092851	předpisech	-0.1294624
-5.092851	předpoklad	-0.1879658
-5.092851	představí	-0.1882957
-5.092851	předstihem	-0.1852608
-3.173908	předtím	-0.369755
-5.092851	předškolní	-0.1885727
-5.092851	přejdete	-0.1852608
-4.247869	přeji	-0.2672986
-4.490893	přejít	-0.26035
-5.092851	překročí	-0.1885973
-4.791889	přelouče	-0.1844121
-5.092851	přeložit	-0.1715506
-4.791889	přepnout	-0.1834801
-4.39399	přepojit	-0.1879663
-5.092851	přepojovat	-0.185063
-4.61582	přeprava	-0.1885763
-4.791889	přepravil	-0.1885763
-4.61582	přepravu	-0.1885727
-4.791889	přepravy	-0.1294463
-4.13873	přerov	-0.3450325
-3.695042	přerova	-0.2461877
-4.051582	přerově	-0.207815
-3.010201	přes	-0.4997014
-4.490893	přesedat	-0.105148
-5.092851	přesednete	-0.1852608
-5.092851	přesednou	-0.1852608
-5.092851	přesednout	-0.1294624
-4.791889	přesedá	-0.1870062
-5.092851	přesedám	-0.1294624
-4.61582	přesedáte	-0.2819368
-5.092851	přeslechla	-0.1294624
-3.615861	přesně	-0.2835022
-5.092851	přestavlk	-0.1294624
-5.092851	přestavlky	-0.1872384
-5.092851	přestavlkách	-0.1885763
-5.092851	přestoupila	-0.1852608
-4.490893	přestoupit	-0.1934844
-5.092851	přestoupím	-0.1294624
-4.39399	přestoupíte	-0.8254319
-3.173908	přestup	-0.5737485
-3.028528	přestupem	-0.9698184
-5.092851	přestupoval	-0.1774826
-5.092851	přestupovalo	-0.1877445
-3.71277	přestupovat	-0.4360579
-4.791889	přestupování	-0.1856034
-4.247869	přestupu	-0.2641692
-4.13873	přestupuje	-0.3424043
-3.946849	přestupujete	-0.3811364
-4.61582	přestupuji	-0.1069881
-4.490893	přestupy	-0.429831
-5.092851	přestávku	-0.1880606
-5.092851	převážet	-0.1885868
-3.352622	přeštic	-0.2852339
-4.247869	přeštice	-0.3372341
-4.61582	přešticích	-0.1779032
-4.791889	přibilová	-0.361405
-3.979033	přibližně	-0.3331616
-5.092851	přibáňová	-0.1294624
-5.092851	přicházelo	-0.1715506
-5.092851	přichází	-0.1715506
-5.092851	přidaný	-0.1879658
-4.791889	přijde	-0.1287266
-4.490893	přijdete	-0.1815317
-4.791889	přijdu	-0.1857022
-3.241727	přijede	-0.3584181
-3.814226	přijedete	-0.5690704
-4.61582	přijedu	-0.1217002
-4.092973	přijel	-0.1545549
-4.490893	přijela	-0.1153598
-5.092851	přijeli	-0.1867809
-4.490893	přijet	-0.1068103
-3.548915	přijíždí	-0.1806171
-5.092851	přijíždět	-0.1294624
-5.092851	přijďte	-0.1884886
-4.791889	přimda	-0.1211805
-5.092851	připlácí	-0.1294624
-4.490893	připojení	-0.6769305
-5.092851	přivézt	-0.1885798
-5.092851	přání	-0.1294624
-5.092851	přáníčko	-0.1879517
-4.61582	příbram	-0.1658322
-3.79195	příbrami	-0.209434
-4.791889	příjemnou	-0.1885938
-5.092851	příjemný	-0.1831962
-3.79195	příjezd	-0.3497962
-5.092851	příjezdem	-0.1819911
-5.092851	příjezdu	-0.1886043
-4.39399	příjezdy	-0.1293017
-5.092851	příjezdů	-0.1819911
-5.092851	příliš	-0.1883343
-3.143596	přímo	-0.5362839
-4.247869	přímé	-0.2695969
-4.61582	přímého	-0.1796533
-2.922724	přímý	-0.4618519
-4.39399	přímým	-0.4683153
-5.092851	případech	-0.1294624
-4.791889	případně	-0.1279291
-5.092851	případě	-0.1862137
-3.360591	příplatek	-0.6593307
-3.946849	příplatkem	-0.2830825
-4.051582	příplatku	-0.3456353
-4.013794	příplatky	-0.3579193
-5.092851	příplatků	-0.1294624
-3.075953	přípoj	-0.4850261
-4.61582	přípoje	-0.2212425
-5.092851	přípojem	-0.1852608
-5.092851	přípoji	-0.1852608
-5.092851	přírodě	-0.1774826
-5.092851	příčina	-0.1869393
-4.791889	příčinu	-0.129374
-4.61582	příčiny	-0.6053501
-5.092851	příčině	-0.1872559
-3.946849	příští	-0.3253326
-5.092851	příštího	-0.1886043
-2.872878	půl	-1.071068
-5.092851	půlhodina	-0.1850099
-5.092851	půli	-0.1886008
-3.814226	půlnoci	-0.2739901
-5.092851	půlnoční	-0.1852608
-5.092851	radbuzou	-0.1294624
-5.092851	radek	-0.1886008
-4.490893	radnic	-0.4171028
-5.092851	radnice	-0.1294624
-4.791889	radnicích	-0.127913
-4.791889	radov	-0.1863054
-5.092851	rady	-0.1886043
-3.946849	radši	-0.2001234
-5.092851	rajhradu	-0.1294624
-5.092851	rajtová	-0.1840084
-5.092851	rakouska	-0.1885973
-5.092851	rakouský	-0.1886043
-4.61582	rakovník	-0.1852644
-4.314813	rakovníka	-0.2046999
-5.092851	rakovníku	-0.1294624
-3.630584	ranní	-0.3058618
-4.791889	ranních	-0.3685957
-5.092851	ranním	-0.1881729
-3.770761	ražic	-0.3845278
-4.247869	ražice	-0.1417731
-3.770761	ražicích	-0.2669478
-4.61582	regensburgu	-0.2396746
-4.791889	rekreační	-0.1832424
-4.61582	respektive	-0.1736966
-5.092851	reálný	-0.1813891
-5.092851	režijka	-0.1294624
-5.092851	režijku	-0.1882992
-5.092851	robíková	-0.1848862
-4.61582	rodný	-0.2998363
-5.092851	rodným	-0.1886043
-5.092851	rohlíková	-0.188222
-5.092851	rok	-0.1886043
-5.092851	roku	-0.1774826
-4.61582	roky	-0.1738816
-3.217924	rokycan	-0.3162134
-3.71277	rokycanech	-0.3969046
-3.946849	rokycany	-0.2167262
-4.490893	role	-0.1744217
-4.791889	roli	-0.1820908
-5.092851	rolková	-0.1840084
-4.247869	rovnou	-0.2564505
-4.791889	rovných	-0.1821904
-4.314813	rozdíl	-0.1744313
-5.092851	rozdělená	-0.1885482
-4.791889	rozhodnete	-0.1794779
-5.092851	rozhodnu	-0.1294624
-5.092851	rozhodující	-0.1294624
-5.092851	rozhovor	-0.1885096
-5.092851	rozkládací	-0.1294624
-5.092851	rozmarová	-0.1813891
-5.092851	rozmezí	-0.1801326
-4.791889	rozumnější	-0.129382
-5.092851	rozumím	-0.1846209
-5.092851	rozumíte	-0.18727
-5.092851	roční	-0.1886008
-5.092851	rr	-0.1885973
-4.247869	ruda	-0.3242584
-5.092851	rudnou	-0.1883658
-4.791889	rudné	-0.177184
-4.013794	rudu	-0.2180072
-3.524782	rudy	-0.3230619
-4.013794	rudě	-0.1446609
-4.61582	rybniště	-0.1138633
-5.092851	rybáčková	-0.1294624
-5.092851	rychle	-0.1852608
-5.092851	rychleji	-0.1294624
-4.490893	rychlejší	-0.1250612
-5.092851	rychlejšího	-0.1860445
-2.111621	rychlík	-0.7441796
-3.10176	rychlíkem	-0.4279961
-5.092851	rychlíkové	-0.1885657
-4.314813	rychlíkový	-0.3597271
-4.051582	rychlíku	-0.160894
-3.402788	rychlíky	-0.4453228
-5.092851	rychlíků	-0.1715506
-5.092851	rychlý	-0.1850099
-5.092851	ryšavá	-0.1813891
-5.092851	rád	-0.1886043
-4.490893	ráda	-0.1666221
-5.092851	rádio	-0.1843625
-5.092851	rádiotelefonu	-0.1876497
-4.18988	rána	-0.1057339
-2.376984	ráno	-0.5886539
-4.39399	ránu	-0.1809137
-5.092851	růžičková	-0.1840084
-5.092851	růžičová	-0.1885763
-2.816525	s	-0.9130287
-4.013794	samozřejmě	-0.2865197
-5.092851	samé	-0.1877796
-4.18988	samý	-0.2443998
-5.092851	samým	-0.1882641
-5.092851	schejbal	-0.1877796
-5.092851	schwandorf	-0.1862137
-5.092851	schwandorfu	-0.1294624
-5.092851	sdělit	-0.1879587
-2.25984	se	-0.6574127
-4.791889	sebe	-0.1885622
-5.092851	sebevíc	-0.1294624
-4.791889	sebou	-0.1877164
-5.092851	sedláček	-0.1840084
-5.092851	sedláčková	-0.1840084
-2.255399	sedm	-0.7798976
-4.18988	sedma	-0.9540216
-3.5132	sedmdesát	-0.7573706
-5.092851	sedmdesáti	-0.1885026
-4.39399	sedmi	-0.2654864
-4.791889	sedmička	-0.1766617
-4.791889	sedmičku	-0.120135
-2.440741	sedmnáct	-0.8576736
-5.092851	sedmnácti	-0.1828731
-5.092851	sedmnáctou	-0.1885166
-3.814226	sedmnácté	-0.4759455
-4.61582	sedmnáctého	-0.1798036
-4.013794	sedmou	-0.376082
-3.459516	sedmset	-1.514782
-3.138743	sedmé	-0.5087831
-4.013794	sedmého	-0.3325457
-5.092851	sedmým	-0.1885061
-5.092851	sedím	-0.1715506
-3.561504	sem	-0.537223
-5.092851	senior	-0.1886008
-5.092851	sepekov	-0.1861785
-5.092851	septik	-0.1840084
-5.092851	sezení	-0.1294624
-4.61582	seznam	-0.187604
-5.092851	sháním	-0.1813891
-3.229662	si	-0.3552333
-4.61582	sice	-0.1809255
-5.092851	simota	-0.1813891
-5.092851	sjedete	-0.1871997
-5.092851	skalová	-0.1848862
-5.092851	skončili	-0.1294624
-5.092851	skončíme	-0.1294624
-4.61582	skoro	-0.1835936
-4.314813	skvělý	-0.3764371
-5.092851	sladký	-0.1840084
-5.092851	slapková	-0.1840084
-5.092851	slev	-0.1294624
-3.979033	sleva	-0.3310146
-5.092851	slevenkou	-0.1294624
-4.791889	slevou	-0.1227337
-5.092851	slevové	-0.1886008
-4.791889	slevu	-0.1290565
-5.092851	slevy	-0.1861785
-5.092851	slečno	-0.1294624
-5.092851	sloupová	-0.1848862
-4.791889	slovan	-0.3640243
-4.791889	slovensko	-0.1289559
-4.791889	službu	-0.1819769
-5.092851	slyším	-0.1294624
-3.979033	smíchov	-0.3049805
-3.661618	smíchova	-0.2135262
-4.791889	smíchovském	-0.3681291
-3.71277	smíchově	-0.4581897
-5.092851	směnu	-0.1852608
-3.587833	směr	-0.2699073
-3.750558	směrem	-0.6660695
-4.791889	směru	-0.1871751
-5.092851	smůlu	-0.1801326
-4.791889	snad	-0.181243
-5.092851	snažila	-0.1886043
-5.092851	snížené	-0.1878112
-3.615861	sobota	-0.4013285
-5.092851	sobotková	-0.1848862
-4.61582	sobotní	-0.1878639
-2.530694	sobotu	-0.5548486
-4.490893	soboty	-0.1835546
-5.092851	sobová	-0.1848862
-4.791889	sobě	-0.3094783
-5.092851	sokolov	-0.1715506
-4.61582	sokolova	-0.1797213
-5.092851	sokolová	-0.1813891
-5.092851	somotová	-0.1840084
-5.092851	souvislosti	-0.1879447
-5.092851	součková	-0.1840084
-5.092851	speciální	-0.1886043
-5.092851	speciálního	-0.1886043
-4.61582	spodem	-0.2962159
-3.200891	spoj	-0.4020646
-3.946849	spoje	-0.216684
-4.61582	spojem	-0.1254101
-3.039907	spojení	-0.4404992
-5.092851	spojit	-0.1883343
-5.092851	spojích	-0.1294624
-4.791889	spojů	-0.1764995
-4.490893	společnou	-0.6802143
-5.092851	společné	-0.1885973
-5.092851	společného	-0.1886043
-4.791889	spoluzavazadlo	-0.1294303
-3.71277	spíš	-0.2073459
-5.092851	spěšnin	-0.1871997
-5.092851	spěšnina	-0.1843767
-4.791889	spěšninu	-0.1815994
-3.548915	spěšný	-0.4046351
-4.39399	spěšným	-0.3087826
-5.092851	sraz	-0.1294624
-4.61582	srb	-0.1821264
-4.791889	srbska	-0.1844652
-5.092851	srbsko	-0.1843767
-5.092851	stadionu	-0.1294624
-3.888859	stanice	-0.166769
-4.61582	stanici	-0.1881518
-5.092851	stanoviště	-0.1294624
-4.791889	stará	-0.1871926
-4.791889	staré	-0.3685571
-3.837707	starého	-0.6581995
-4.314813	starý	-0.4490976
-4.791889	starší	-0.1853103
-3.084386	staví	-0.7948875
-4.490893	stavěl	-0.2492201
-4.18988	stavělo	-0.6471683
-5.092851	stavěly	-0.1294624
-4.61582	stačil	-0.2391223
-3.615861	stačilo	-0.2961639
-3.916887	stačit	-0.2743641
-3.273441	stačí	-0.4091739
-4.61582	staňkov	-0.2870524
-3.979033	staňkova	-0.1347372
-5.092851	staňkovem	-0.1294624
-5.092851	staňková	-0.1813891
-4.490893	staňkově	-0.1586761
-4.39399	stejnou	-0.4083307
-4.247869	stejná	-0.3368368
-4.39399	stejné	-0.1902474
-3.750558	stejný	-0.3379063
-3.946849	stejně	-0.2382566
-5.092851	stihl	-0.1862137
-5.092851	stihneme	-0.1886008
-3.979033	stihnete	-0.3634279
-5.092851	stihnou	-0.1855469
-4.61582	stihnout	-0.1274813
-4.490893	stihnu	-0.1738308
-3.86253	sto	-0.3403599
-4.013794	stoda	-0.1151992
-4.791889	stodě	-0.1705175
-3.314834	stojí	-0.3058025
-4.791889	stovku	-0.11669
-5.092851	strach	-0.1804792
-5.092851	strachu	-0.1843767
-3.678009	strakonic	-0.2772861
-4.791889	strakonice	-0.1827487
-4.314813	strakonicích	-0.3869624
-5.092851	straková	-0.1294624
-5.092851	stranou	-0.1715506
-5.092851	strašic	-0.1860445
-4.490893	strašice	-0.4283056
-5.092851	strašná	-0.1850099
-4.39399	strašně	-0.3243478
-5.092851	strnáctová	-0.1848862
-4.791889	stráže	-0.1273683
-5.092851	student	-0.1819911
-5.092851	stáhnul	-0.1804792
-4.791889	stál	-0.3686027
-5.092851	stála	-0.1885377
-4.39399	stále	-0.3140272
-4.791889	stálo	-0.1870766
-4.39399	stát	-0.1872278
-4.61582	státní	-0.2999135
-4.39399	státním	-0.4648069
-5.092851	stíhal	-0.1883764
-5.092851	stíhat	-0.1886008
-4.791889	stíháte	-0.1293981
-4.791889	střed	-0.3094783
-4.39399	středa	-0.185575
-5.092851	středeční	-0.1875688
-3.770761	středu	-0.2439015
-5.092851	střezimíř	-0.1294624
-5.092851	střezimíře	-0.1882571
-3.439772	stříbra	-0.2625304
-3.86253	stříbro	-0.1528541
-4.18988	stříbře	-0.4742171
-4.314813	suchdola	-0.2310852
-5.092851	suchánkovo	-0.1840084
-4.39399	summerau	-0.5085607
-4.247869	super	-0.2672809
-4.791889	supercity	-0.1801254
-4.791889	sušic	-0.1281064
-3.385414	sušice	-0.4268357
-4.13873	sušici	-0.2535884
-4.092973	svinov	-0.1221503
-4.314813	svinova	-0.2167219
-4.39399	svinově	-0.1591938
-5.092851	svitavy	-0.1843767
-5.092851	svoboda	-0.1840084
-4.791889	svobodová	-0.1813143
-4.61582	svojkovic	-0.1201186
-4.092973	svojšín	-0.2382422
-3.661618	svojšína	-0.2783162
-3.946849	svojšíně	-0.3473344
-4.791889	svátcích	-0.3094783
-3.86253	svátek	-0.4686548
-5.092851	svátku	-0.1294624
-4.791889	svátky	-0.1294182
-5.092851	svézt	-0.1872384
-5.092851	svým	-0.1885903
-5.092851	světák	-0.1840084
-5.092851	světě	-0.1294624
-4.791889	syn	-0.1852503
-5.092851	sám	-0.1848862
-5.092851	sázavou	-0.1715506
-5.092851	sýkora	-0.1840084
-5.092851	sýkorová	-0.1840084
-3.524782	ta	-0.1567947
-4.61582	tachov	-0.2280728
-3.837707	tachova	-0.3704997
-4.314813	tachově	-0.2154875
-5.092851	tadltajíčková	-0.1813891
-2.760548	tady	-0.2608216
-4.18988	tadyodsud	-0.5297579
-5.092851	tajčová	-0.1813891
-2.03914	tak	-0.6182539
-3.837707	takovou	-0.9664329
-5.092851	taková	-0.1884781
-5.092851	takové	-0.1886043
-4.314813	takového	-0.2983285
-3.750558	takový	-0.454042
-4.490893	takových	-0.1245902
-4.791889	takovýto	-0.1882711
-3.110714	takto	-0.1481686
-2.735052	také	-0.3369198
-2.10756	takže	-0.4991092
-2.230259	tam	-0.4107658
-3.979033	tamodtud	-0.3071774
-4.314813	tamten	-0.1573558
-4.61582	tamto	-0.2941137
-5.092851	tamty	-0.1886008
-5.092851	tarníková	-0.1840084
-5.092851	tatry	-0.1294624
-5.092851	technický	-0.1885447
-5.092851	technických	-0.1886043
-2.656824	teda	-0.2887207
-4.051582	tedy	-0.1402809
-5.092851	tehdy	-0.1804792
-4.39399	telefon	-0.3468878
-5.092851	telefonem	-0.1861785
-4.61582	telefonní	-0.6643482
-4.61582	telefonu	-0.1290042
-5.092851	temelín	-0.1862137
-2.25984	ten	-0.5473877
-5.092851	tenišová	-0.1813891
-3.561504	tento	-0.2508453
-5.092851	tentýž	-0.1831962
-3.86253	teplic	-0.2087203
-4.61582	teplice	-0.166386
-5.092851	teplický	-0.1852361
-4.39399	teplicích	-0.1689413
-2.607265	teď	-0.391413
-5.092851	ticháková	-0.1840084
-5.092851	tip	-0.1867809
-5.092851	tipovala	-0.1846209
-5.092851	tisíce	-0.1294624
-4.61582	tlučné	-0.1088709
-1.713863	to	-0.4413225
-3.084386	toho	-0.2083399
-5.092851	tohoto	-0.1884675
-4.39399	tolik	-0.1229702
-3.678009	tom	-0.2491317
-5.092851	tomto	-0.1885938
-4.18988	tomu	-0.1220885
-5.092851	tomášek	-0.1886043
-4.791889	tomášková	-0.361405
-4.18988	totiž	-0.2176622
-3.79195	toto	-0.1685072
-4.051582	tou	-0.184773
-5.092851	toulová	-0.1848862
-5.092851	touš	-0.1840084
-5.092851	toušová	-0.1840084
-5.092851	továrny	-0.1885096
-5.092851	točil	-0.1294624
-5.092851	točník	-0.1294624
-3.979033	točníku	-0.2515274
-5.092851	tošovský	-0.1813891
-5.092851	trati	-0.1827416
-4.61582	trhanov	-0.2993626
-4.490893	trhanova	-0.1674916
-5.092851	trhanově	-0.1827416
-4.61582	trnava	-0.1245293
-5.092851	trnavu	-0.1860445
-4.61582	trnavy	-0.1194285
-4.61582	trnavě	-0.1582891
-4.092973	trochu	-0.2247129
-5.092851	trojka	-0.1866119
-5.092851	troníčková	-0.1813891
-4.39399	trutnova	-0.341683
-4.39399	trvá	-0.1683997
-3.273441	tu	-0.3006427
-4.490893	turnov	-0.2078042
-4.39399	turnova	-0.1836509
-4.791889	turnově	-0.1764635
-4.791889	turčianské	-0.3686132
-3.837707	tuto	-0.6509022
-4.791889	tušení	-0.1861996
-5.092851	tužku	-0.1850099
-5.092851	tv	-0.1885096
-5.092851	tvrdíková	-0.1840084
-3.241727	ty	-0.3288933
-5.092851	tybláho	-0.1846209
-3.979033	tyto	-0.7182511
-4.247869	tábor	-0.1523504
-3.86253	tábora	-0.2157993
-4.314813	táboře	-0.1765946
-5.092851	tádlová	-0.1848862
-2.908295	té	-0.5703791
-5.092851	této	-0.1886043
-3.1845	tím	-0.2939723
-5.092851	tímto	-0.1880044
-4.092973	týden	-0.1516142
-4.791889	týdenní	-0.3685991
-5.092851	týdne	-0.1885798
-4.314813	týdnu	-0.1516292
-4.791889	týna	-0.1714266
-5.092851	týnce	-0.1294624
-4.791889	týnec	-0.1227337
-5.092851	týništi	-0.1884886
-4.18988	týniště	-0.1863662
-5.092851	týně	-0.1294624
-2.88616	těch	-0.2627729
-4.61582	těmi	-0.1885692
-5.092851	těsný	-0.188215
-4.39399	těsně	-0.1904373
-5.092851	těšínská	-0.1813891
-4.61582	těžko	-0.1290082
-5.092851	těžkého	-0.1886043
-3.260476	třeba	-0.3007924
-4.39399	třebové	-0.1127625
-4.791889	třebíč	-0.3094783
-5.092851	třebíče	-0.1715506
-4.791889	třebíči	-0.3515665
-5.092851	třemi	-0.1886043
-5.092851	třemošnou	-0.1867809
-4.39399	třemošná	-0.1804428
-3.86253	třemošné	-0.2369795
-3.084386	třetí	-0.7480605
-4.13873	třetího	-0.4470971
-5.092851	třeštíková	-0.1813891
-5.092851	třeště	-0.1715506
-4.791889	třešť	-0.3094783
-2.244182	tři	-0.6801182
-2.017805	třicet	-1.179839
-4.314813	třiceti	-0.1016072
-4.18988	třicátého	-0.3496189
-2.523613	třináct	-0.9419554
-5.092851	třinácti	-0.1885868
-4.39399	třinácté	-0.4075028
-4.490893	třináctého	-0.26599
-4.490893	třista	-0.3587126
-4.13873	třičtvrtě	-0.4413594
-4.490893	tří	-0.1256533
-4.791889	třída	-0.185222
-5.092851	třídou	-0.1830364
-4.791889	třídy	-0.1764166
-5.092851	třídě	-0.1852043
-3.254136	u	-0.4418515
-5.092851	uctivě	-0.1820125
-5.092851	udané	-0.1885938
-5.092851	udán	-0.1294624
-5.092851	udělala	-0.1886043
-5.092851	udělali	-0.1883308
-5.092851	udělat	-0.1294624
-5.092851	udělám	-0.1843625
-5.092851	uděláme	-0.1881729
-5.092851	uděláno	-0.1294624
-5.092851	uherské	-0.1886008
-5.092851	uherského	-0.1886008
-5.092851	uhádl	-0.1872559
-5.092851	uhýbá	-0.1852608
-3.79195	ujel	-0.4005231
-4.39399	ujelo	-0.2586233
-5.092851	ujíždí	-0.1877937
-5.092851	uksová	-0.1813891
-4.791889	ulčová	-0.1776049
-4.791889	umíte	-0.1860304
-5.092851	upřesnit	-0.1877199
-5.092851	určitý	-0.1885517
-3.86253	určitě	-0.2420548
-4.791889	uskutečnit	-0.1260949
-5.092851	utli	-0.1294624
-5.092851	učedníky	-0.1774826
-4.61582	učiliště	-0.2927684
-5.092851	učitelka	-0.1886043
-2.632089	už	-0.5099696
-1.414378	v	-1.373217
-4.791889	vagón	-0.1253371
-5.092851	vagónu	-0.1294624
-4.791889	vagóny	-0.3094783
-5.092851	valašské	-0.1885973
-5.092851	valašského	-0.1885973
-5.092851	valašském	-0.1885973
-4.61582	valcha	-0.120906
-4.490893	valchu	-0.4297064
-4.791889	valchy	-0.3094783
-5.092851	valešová	-0.1840084
-5.092851	valis	-0.1813891
-5.092851	valářová	-0.1848862
-5.092851	valše	-0.1294624
-4.490893	varech	-0.2898756
-4.791889	varianty	-0.1282716
-4.61582	vary	-0.2994574
-3.86253	varů	-0.2468303
-5.092851	vaňková	-0.1813891
-5.092851	vaše	-0.1883027
-5.092851	vašek	-0.1886043
-5.092851	vašková	-0.1840084
-2.1713	ve	-1.431466
-5.092851	vedle	-0.1885938
-4.092973	vejprnic	-0.1657506
-5.092851	velenice	-0.1774826
-4.39399	velice	-0.2476186
-4.61582	velkou	-0.6642957
-5.092851	velká	-0.1886008
-4.39399	velkého	-0.3261116
-4.791889	velkém	-0.3686132
-4.314813	velký	-0.1294021
-5.092851	velkým	-0.1886043
-4.791889	velmi	-0.1819591
-5.092851	vendlová	-0.1813891
-5.092851	verbová	-0.1294624
-3.979033	veselí	-0.3037744
-5.092851	vetengo	-0.1813891
-4.490893	vezme	-0.2679712
-4.490893	vezmou	-0.1765608
-4.39399	vezmu	-0.1195271
-2.738878	večer	-0.5056813
-4.314813	večera	-0.1787715
-4.013794	večerní	-0.08438496
-5.092851	večerním	-0.1856705
-5.092851	večerníčka	-0.1294624
-5.092851	veřejnost	-0.1294624
-5.092851	vidím	-0.1879658
-5.092851	viděl	-0.1879903
-5.092851	vidění	-0.1294624
-5.092851	vidět	-0.1294624
-4.791889	vieně	-0.173664
-4.791889	vilémova	-0.1879342
-5.092851	vinohradech	-0.1846209
-5.092851	virčík	-0.1813891
-5.092851	viset	-0.1885622
-4.13873	viďte	-0.4186848
-4.314813	vlacích	-0.1620472
-2.163057	vlak	-0.739094
-3.645824	vlakem	-0.2839611
-4.791889	vlakovou	-0.1885868
-4.314813	vlaková	-0.4406695
-3.814226	vlakové	-0.5698732
-4.791889	vlakový	-0.1849852
-5.092851	vlakových	-0.1830364
-4.791889	vlakovým	-0.1881869
-3.490924	vlaku	-0.315215
-2.992615	vlaky	-0.4666086
-4.013794	vlaků	-0.2540001
-3.645824	vlastně	-0.1751321
-5.092851	vlevo	-0.1881729
-5.092851	vltavou	-0.1294624
-4.490893	vochova	-0.1757671
-4.13873	vodňan	-0.2403727
-5.092851	vodňanech	-0.1294624
-4.314813	vodňany	-0.296094
-5.092851	vojně	-0.1852043
-5.092851	vojtíková	-0.1848862
-5.092851	volala	-0.1883834
-5.092851	voldřichová	-0.1840084
-5.092851	volnou	-0.1885447
-4.490893	volám	-0.1189883
-4.61582	voláte	-0.2990606
-5.092851	votavová	-0.188222
-4.791889	vozy	-0.1255601
-5.092851	vracet	-0.188036
-5.092851	vracov	-0.1828731
-5.092851	vracova	-0.1852608
-5.092851	vrací	-0.188036
-5.092851	vracíme	-0.1883869
-5.092851	vracíte	-0.1862137
-5.092851	vranov	-0.1883658
-4.39399	vranova	-0.1873727
-4.61582	vranově	-0.2819003
-4.791889	vrchu	-0.125625
-4.791889	vrátil	-0.1803506
-5.092851	vrútek	-0.1884851
-4.791889	vrútkách	-0.1227337
-5.092851	vsetíkovská	-0.1840084
-4.490893	vsetína	-0.1179252
-5.092851	vsetíně	-0.1294624
-5.092851	vstupenky	-0.1294624
-5.092851	vstávat	-0.1774826
-5.092851	vv	-0.1864393
-3.106214	vy	-0.7980359
-5.092851	vyberte	-0.1872384
-5.092851	vybral	-0.1294624
-4.39399	vydržte	-0.1753661
-5.092851	vydáváte	-0.1878077
-4.791889	vyhovovalo	-0.1293579
-4.61582	vyjde	-0.1884711
-4.791889	vyjede	-0.1707258
-5.092851	vyjedeme	-0.1857693
-3.630584	vyjedete	-0.6822325
-5.092851	vyjel	-0.1884009
-4.39399	vyjela	-0.1604902
-5.092851	vyjeli	-0.1876145
-4.247869	vyjet	-0.1474313
-5.092851	vyjmenovat	-0.187604
-5.092851	vyjádřil	-0.1294624
-3.71277	vyjíždí	-0.5268189
-5.092851	vyjíždíme	-0.1804792
-4.791889	vyjížděl	-0.1868548
-4.61582	vyjížděla	-0.176294
-4.791889	vyjížděli	-0.1804506
-4.490893	vyjíždět	-0.2055848
-4.61582	vynikající	-0.1775186
-5.092851	vypadalo	-0.1877199
-5.092851	vypadat	-0.1852043
-4.490893	vypadá	-0.1245739
-5.092851	vypisovat	-0.1827416
-5.092851	vypisuji	-0.1883588
-5.092851	vyplatí	-0.1881799
-5.092851	vyplníte	-0.1886043
-4.490893	vypravený	-0.2594327
-4.314813	vypravovaný	-0.1708717
-5.092851	vypátrám	-0.1877199
-5.092851	vypíšete	-0.1881658
-5.092851	vyrušit	-0.1875864
-5.092851	vysokoškolské	-0.1886043
-5.092851	vysoká	-0.1294624
-5.092851	vystavenou	-0.1885903
-4.61582	vystavit	-0.2975577
-5.092851	vystavuje	-0.1885903
-5.092851	vystaví	-0.1294624
-5.092851	vystavíte	-0.1862137
-4.490893	vystoupit	-0.1580785
-4.791889	vystoupím	-0.1707842
-5.092851	vystoupíte	-0.1715506
-5.092851	vystupoval	-0.1856705
-5.092851	vystupovat	-0.1294624
-5.092851	vytiskneme	-0.1885868
-5.092851	vytočila	-0.1884605
-5.092851	vytočit	-0.1886008
-4.791889	vytočte	-0.17722
-4.791889	vytočíte	-0.1828695
-5.092851	vytáková	-0.1813891
-5.092851	vyzvedne	-0.1294624
-4.791889	vyzvednout	-0.1883553
-5.092851	vyčerpávající	-0.1845572
-5.092851	vyřídí	-0.1877445
-5.092851	vyřídím	-0.1774826
-5.092851	vyřízení	-0.1294624
-5.092851	vyšel	-0.1885201
-5.092851	vyšla	-0.1875934
-4.791889	vyšší	-0.3686167
-4.791889	vzal	-0.1294222
-5.092851	vzala	-0.1885166
-5.092851	vzali	-0.1881834
-5.092851	vzbouzet	-0.1880746
-4.61582	vzít	-0.1873368
-5.092851	václavík	-0.1813891
-2.186113	vám	-0.8110546
-4.791889	vámi	-0.1874774
-2.089957	vás	-0.7369036
-5.092851	vávrová	-0.1840084
-5.092851	vébrová	-0.1813891
-5.092851	vézt	-0.1886008
-4.092973	více	-0.1474929
-5.092851	vícekrát	-0.1885237
-5.092851	víkend	-0.1294624
-5.092851	víkendu	-0.1885798
-3.814226	vím	-0.3813147
-4.051582	víte	-0.5189193
-4.61582	vöcklabruck	-0.186323
-4.092973	výborný	-0.382865
-3.420887	výborně	-0.801985
-4.791889	výběr	-0.1824288
-3.731253	východ	-0.529479
-4.791889	východní	-0.3685921
-5.092851	východních	-0.1885903
-4.490893	východu	-0.1946102
-4.791889	výhodný	-0.1291489
-4.314813	výjimky	-0.5723455
-5.092851	výlet	-0.1774826
-4.791889	výluce	-0.1739904
-4.13873	výluka	-0.1530994
-4.791889	výluku	-0.1859669
-4.791889	výpravčího	-0.1293258
-5.092851	výpravčímu	-0.1885692
-4.791889	výtečně	-0.11669
-5.092851	výš	-0.1294624
-5.092851	včas	-0.1886008
-5.092851	včera	-0.1886043
-4.791889	včetně	-0.1294182
-4.61582	věc	-0.180347
-5.092851	věděl	-0.1879587
-4.490893	věděla	-0.1253371
-2.660017	vědět	-0.7599875
-5.092851	vějová	-0.1840084
-5.092851	věkem	-0.1294624
-5.092851	věku	-0.1294624
-4.791889	většinou	-0.1819876
-5.092851	vřele	-0.1820125
-5.092851	všech	-0.1830364
-3.587833	všechno	-0.1947548
-4.13873	všechny	-0.1965976
-3.006626	všední	-1.63953
-5.092851	všeho	-0.1885798
-4.791889	všeobecně	-0.1282918
-5.092851	všichni	-0.1883167
-4.39399	všude	-0.1038076
-3.561504	vůbec	-0.2691832
-4.13873	vůz	-0.270891
-3.979033	vždycky	-0.1245841
-4.791889	vždyť	-0.3677464
-4.61582	wald	-0.1263579
-4.490893	waldu	-0.159029
-5.092851	westmedia	-0.1882465
-1.731826	z	-1.289692
-3.088664	za	-0.4913844
-5.092851	zachrání	-0.1294624
-4.791889	zadarmo	-0.1879763
-4.314813	zadní	-0.4491608
-5.092851	zadnější	-0.1886043
-5.092851	zadržte	-0.1872559
-5.092851	zahraniční	-0.1883693
-4.39399	zahraničí	-0.1836716
-5.092851	zajíc	-0.1813891
-5.092851	zajímala	-0.1885587
-4.61582	zajímalo	-0.1830826
-5.092851	zajímavý	-0.1884746
-4.490893	zajímá	-0.1876531
-5.092851	zakoupení	-0.1886008
-4.791889	zakoupit	-0.171547
-5.092851	zamluvený	-0.1861785
-4.791889	zaměstnání	-0.3094783
-5.092851	zaplatí	-0.1860445
-5.092851	zaplatíte	-0.1886043
-5.092851	zapomněl	-0.1846209
-4.791889	zapomněla	-0.1853315
-5.092851	zarazilo	-0.1294624
-3.084386	zase	-0.2263134
-5.092851	zaspal	-0.1846209
-5.092851	zastavte	-0.1882536
-4.791889	zastavuje	-0.1731412
-4.051582	zastaví	-0.1770245
-4.490893	zastávce	-0.1174381
-3.574469	zastávka	-0.3276568
-4.791889	zastávkou	-0.1671492
-4.61582	zastávku	-0.2212425
-3.888859	zastávky	-0.1484727
-3.86253	zatím	-0.3245761
-4.314813	zavazadel	-0.1638144
-4.490893	zavazadla	-0.4291474
-4.61582	zavazadlo	-0.1857658
-4.490893	zavolat	-0.3056409
-4.791889	zavolejte	-0.1868795
-4.791889	zavolám	-0.1271745
-5.092851	zavřeno	-0.1852043
-2.512062	zač	-1.89282
-5.092851	začnou	-0.18845
-5.092851	začátkem	-0.1886043
-5.092851	začíná	-0.1885201
-5.092851	zařídit	-0.1774826
-4.013794	zbiroha	-0.2067878
-5.092851	zbirohu	-0.1294624
-4.18988	zbiroze	-0.4884146
-4.791889	zboží	-0.177479
-5.092851	zbyněk	-0.1848862
-5.092851	zbytek	-0.188436
-4.791889	zbytečný	-0.186876
-4.61582	zbytečně	-0.2987477
-5.092851	zbůch	-0.1886008
-4.13873	zbůchu	-0.2389598
-4.61582	zda	-0.2912472
-5.092851	zdanovač	-0.1877796
-5.092851	zdarma	-0.1852043
-4.39399	zdemyslic	-0.1164127
-3.946849	zdic	-0.04041411
-4.490893	zdice	-0.1906822
-3.770761	zdicích	-0.328263
-5.092851	zdlouhavé	-0.1774826
-4.61582	zdražené	-0.240218
-5.092851	zdražení	-0.1294624
-5.092851	zdržet	-0.1294624
-2.738878	ze	-0.8859032
-4.61582	zelený	-0.6644815
-5.092851	zemánková	-0.1813891
-4.61582	zeptal	-0.1832778
-4.791889	zeptala	-0.1826101
-2.608687	zeptat	-0.6973711
-3.888859	zeptám	-0.1829347
-4.791889	zet	-0.3686167
-3.837707	zhruba	-0.1909109
-5.092851	zimního	-0.1886043
-5.092851	zjednodušená	-0.1885973
-4.61582	zjistila	-0.1836113
-3.260476	zjistit	-0.4921978
-5.092851	zjistí	-0.1886043
-5.092851	zjistíte	-0.18727
-5.092851	zjišťovala	-0.185614
-5.092851	zkus	-0.1885833
-4.18988	zkuste	-0.1467676
-4.247869	zkusím	-0.157327
-5.092851	zkusíme	-0.1883693
-5.092851	zlato	-0.1885201
-5.092851	zlatá	-0.1843625
-4.490893	zlaté	-0.6802564
-5.092851	zlevněného	-0.1885868
-5.092851	zlivi	-0.1819911
-4.791889	zlín	-0.11669
-4.791889	zlína	-0.1791018
-5.092851	zlíně	-0.1804792
-5.092851	zmeškala	-0.1877445
-3.946849	změna	-0.3777237
-5.092851	změnili	-0.1294624
-5.092851	změnilo	-0.1294624
-4.791889	změnily	-0.1861644
-4.791889	změnit	-0.1842351
-5.092851	změnu	-0.1804792
-4.791889	změny	-0.1197367
-4.791889	změně	-0.1290524
-5.092851	změněné	-0.1294624
-4.791889	znamenalo	-0.1860092
-4.13873	znamená	-0.1861898
-4.490893	znojma	-0.1854516
-4.314813	znojmo	-0.2297781
-5.092851	znojmě	-0.1294624
-5.092851	známe	-0.1801326
-5.092851	známý	-0.1883588
-5.092851	znát	-0.185614
-5.092851	zopakujete	-0.18727
-5.092851	zopakuji	-0.186788
-4.490893	zpoždění	-0.118016
-5.092851	zprávu	-0.1820125
-4.247869	zpáteční	-0.1175951
-2.880799	zpátky	-0.3946769
-4.051582	zpět	-0.3246901
-5.092851	zrovna	-0.1843625
-5.092851	zrušili	-0.1862137
-4.39399	zrychlený	-0.1225255
-5.092851	zrychlených	-0.1877445
-5.092851	zvedat	-0.1886008
-5.092851	zvládla	-0.1866119
-4.247869	zvláštní	-0.3187897
-5.092851	zvlášť	-0.1294624
-4.13873	zábřehu	-0.2522771
-4.791889	základní	-0.3686132
-4.61582	záleží	-0.1799574
-4.791889	zámková	-0.1767122
-4.013794	západ	-0.337074
-4.490893	západní	-0.488712
-4.092973	západu	-0.1843747
-5.092851	zárubská	-0.1840084
-4.791889	zásilku	-0.1818915
-5.092851	závodníková	-0.1877796
-5.092851	září	-0.1801326
-5.092851	zídková	-0.1294624
-5.092851	zíková	-0.1840084
-2.565357	zítra	-0.5995235
-5.092851	zítřejší	-0.1883343
-4.61582	zítřek	-0.1200776
-4.490893	zřejmě	-0.1282958
-5.092851	zůstalo	-0.1885307
-5.092851	zůstanete	-0.18727
-4.490893	zůstává	-0.261708
-4.61582	úhlavou	-0.234455
-5.092851	újezdce	-0.1774826
-4.791889	újezdec	-0.3683817
-3.678009	úplně	-0.3610314
-5.092851	úsek	-0.1294624
-4.092973	ústí	-0.4562189
-5.092851	ústředna	-0.1883588
-4.791889	ústřednu	-0.1774646
-3.561504	úterý	-0.3430957
-4.61582	úvahu	-0.1738998
-5.092851	úzkorozchodnou	-0.1886008
-5.092851	úžasný	-0.1294624
-5.092851	čadek	-0.1840084
-5.092851	čadová	-0.1840084
-5.092851	čagánek	-0.1840084
-4.61582	čardáš	-0.167046
-5.092851	čardáše	-0.186189
-4.13873	čas	-0.1967147
-4.791889	časem	-0.1197367
-5.092851	časné	-0.1877094
-4.61582	časně	-0.6626686
-5.092851	časovým	-0.1886043
-5.092851	často	-0.1860445
-5.092851	času	-0.1885622
-4.490893	časy	-0.209095
-4.791889	čd	-0.1294584
-4.791889	čech	-0.1882325
-4.39399	čechách	-0.1753788
-4.791889	čeho	-0.1847695
-4.791889	čekají	-0.1854198
-5.092851	čekal	-0.1883588
-5.092851	čekala	-0.1715506
-3.837707	čekat	-0.3156481
-4.051582	čeká	-0.1766886
-4.791889	čekám	-0.169295
-4.61582	čekání	-0.1870132
-4.791889	čekáte	-0.1860198
-5.092851	čermák	-0.1840084
-5.092851	čermáková	-0.1848862
-4.314813	černá	-0.3664279
-5.092851	černý	-0.1715506
-5.092851	červen	-0.1885447
-5.092851	července	-0.1294624
-4.791889	červenci	-0.1854127
-5.092851	červenková	-0.1840084
-5.092851	červené	-0.1885938
-4.791889	červeném	-0.3686097
-4.314813	června	-0.3890472
-5.092851	čerčil	-0.1840084
-5.092851	českou	-0.1886008
-4.791889	česky	-0.1822118
-3.344797	české	-1.634822
-4.61582	českého	-0.6644745
-4.791889	českém	-0.3686167
-4.61582	český	-0.2999801
-3.490924	českých	-1.421805
-4.791889	četla	-0.171547
-3.979033	čili	-0.1724685
-5.092851	čistě	-0.1885166
-5.092851	člověk	-0.1883588
-5.092851	čsad	-0.1774826
-5.092851	čsd	-0.1294624
-2.303406	čtrnáct	-1.330116
-5.092851	čtrnáctou	-0.1294624
-4.314813	čtrnácté	-0.6628727
-4.39399	čtrnáctého	-0.8332133
-5.092851	čtu	-0.1715506
-4.247869	čtvrt	-0.6689397
-3.661618	čtvrtek	-0.1883881
-5.092851	čtvrthodina	-0.1294624
-5.092851	čtvrtka	-0.1852608
-5.092851	čtvrtletní	-0.1886043
-4.39399	čtvrtou	-0.1924845
-5.092851	čtvrtá	-0.1774826
-3.235653	čtvrté	-0.515699
-4.39399	čtvrtého	-0.3256169
-4.39399	čtyř	-0.34326
-2.16613	čtyři	-0.6754166
-4.61582	čtyřia	-0.2996364
-2.118015	čtyřicet	-1.332841
-5.092851	čtyřiceti	-0.1885587
-5.092851	čtyřicáté	-0.1882606
-4.61582	čtyřista	-0.1228357
-5.092851	čárkami	-0.1864393
-4.13873	část	-0.3121879
-4.61582	čím	-0.1827736
-5.092851	čísla	-0.188043
-5.092851	číslem	-0.1294624
-3.469734	číslo	-0.4673474
-3.979033	číčenic	-0.241971
-4.13873	číčenice	-0.255794
-3.837707	číčenicích	-0.3093118
-5.092851	číšimský	-0.1813891
-4.490893	řekl	-0.1618869
-3.750558	řekla	-0.2018827
-5.092851	řekli	-0.187066
-4.39399	řekne	-0.2372769
-5.092851	řekneme	-0.1857693
-4.051582	řeknete	-0.4194919
-4.314813	řeknou	-0.3468516
-3.946849	řeknu	-0.1868593
-4.18988	řekněme	-0.1794271
-3.4802	řekněte	-0.3994147
-4.791889	řevnic	-0.1098597
-4.791889	řevnice	-0.11669
-4.61582	řevnicích	-0.2822912
-5.092851	řevničov	-0.1874247
-4.61582	řevničově	-0.2212425
-4.791889	řečeno	-0.1871715
-4.791889	řešit	-0.1758177
-3.750558	řád	-0.1556673
-5.092851	řádem	-0.1886043
-4.013794	řádu	-0.2319107
-4.61582	řády	-0.128187
-2.875503	říct	-0.5342811
-4.791889	říhová	-0.1810218
-5.092851	říkají	-0.1885903
-3.661618	říkal	-0.3907324
-3.110714	říkala	-0.5496808
-5.092851	říkali	-0.1879658
-4.791889	říkat	-0.1709303
-5.092851	říká	-0.1857693
-4.61582	říkám	-0.1774682
-4.247869	říkáte	-0.4681987
-5.092851	šamanová	-0.1882465
-5.092851	šance	-0.1879658
-5.092851	šap	-0.1294624
-5.092851	šašková	-0.1813891
-5.092851	šebestová	-0.1840084
-5.092851	šebová	-0.1813891
-3.469734	šedesát	-0.822404
-4.13873	šedesáti	-0.5766571
-5.092851	šedivá	-0.1813891
-5.092851	šefová	-0.1848862
-5.092851	šel	-0.1294624
-5.092851	šerhantová	-0.1813891
-2.121711	šest	-0.8866667
-4.39399	šesta	-0.5220985
-3.837707	šesti	-0.4695874
-5.092851	šestku	-0.1886008
-2.209326	šestnáct	-0.9764066
-4.314813	šestnácti	-0.2941386
-4.791889	šestnáctou	-0.1294463
-3.731253	šestnácté	-0.7284091
-4.051582	šestou	-0.259884
-4.61582	šestset	-0.6643482
-3.097351	šesté	-0.5694147
-4.490893	šestého	-0.1092919
-4.791889	šikovný	-0.1761533
-5.092851	šikovně	-0.1883343
-5.092851	šilhanková	-0.1294624
-5.092851	šimánková	-0.1840084
-5.092851	šimáčková	-0.1840084
-5.092851	škodna	-0.1813891
-5.092851	škodováková	-0.1813891
-4.61582	škola	-0.1852538
-5.092851	školová	-0.1294624
-5.092851	školu	-0.1715506
-5.092851	škoulová	-0.1848862
-3.645824	šlo	-0.4062169
-5.092851	šobr	-0.1840084
-5.092851	šoulková	-0.1840084
-4.092973	špatný	-0.4467658
-4.791889	špatně	-0.1886008
-5.092851	špindlerova	-0.1886043
-4.791889	špindlerův	-0.3686167
-5.092851	špičák	-0.18845
-4.39399	špičáku	-0.154897
-5.092851	šroubek	-0.1840084
-4.791889	šrámková	-0.1846421
-5.092851	štafová	-0.1840084
-5.092851	štembera	-0.1840084
-5.092851	štrejnová	-0.1840084
-5.092851	štýbrová	-0.1840084
-5.092851	štědronský	-0.1813891
-5.092851	štěpánová	-0.1294624
-4.791889	šumperka	-0.1278646
-5.092851	šumperku	-0.1294624
-5.092851	švarc	-0.1294624
-4.791889	švihov	-0.1255601
-4.61582	švihova	-0.1706454
-5.092851	švábek	-0.1840084
-5.092851	švýcarsku	-0.1886008
-5.092851	šíma	-0.1885587
-3.837707	šťáhlav	-0.2536667
-5.092851	šťáhlavami	-0.1294624
-5.092851	šťáhlavech	-0.1827416
-4.247869	šťáhlavy	-0.3413951
-5.092851	šůcha	-0.1848862
-3.601621	žatce	-0.3404992
-3.888859	žatci	-0.2512177
-3.946849	žatec	-0.2302208
-5.092851	žatecké	-0.1874036
-4.791889	žatecký	-0.1285294
-4.314813	ždírce	-0.3863463
-5.092851	ždírec	-0.1294624
-2.830535	že	-0.5840811
-5.092851	žeberyová	-0.1886043
-4.791889	železnice	-0.1294343
-5.092851	železniční	-0.1884921
-4.18988	železnou	-0.9542004
-4.247869	železná	-0.6611719
-3.837707	železné	-1.075094
-3.837707	železný	-1.083508
-4.314813	žihle	-0.1628927
-4.791889	žihli	-0.1882816
-5.092851	žiliny	-0.1885798
-5.092851	žinkovy	-0.1294624
-5.092851	živlík	-0.1880676
-5.092851	žlutice	-0.1884886
-4.791889	žáci	-0.1291087
-5.092851	žádnou	-0.1886043
-5.092851	žádná	-0.1885587
-5.092851	žádné	-0.1885973
-5.092851	žádném	-0.1886043
-3.695042	žádný	-0.2896762
-4.61582	žďáru	-0.1856422

\2-grams:
-1.22754	<s> a
-3.697538	<s> aby
-3.487367	<s> abych
-4.651008	<s> abychom
-3.697538	<s> abyste
-2.328655	<s> aha
-4.13941	<s> akorát
-2.606822	<s> ale
-4.651008	<s> anastasová
-3.487367	<s> ani
-1.127849	<s> ano
-4.651008	<s> asi
-4.651008	<s> autobus
-4.651008	<s> autobusové
-4.13941	<s> autobusy
-2.641584	<s> až
-4.651008	<s> benešová
-4.13941	<s> bere
-4.651008	<s> berecký
-4.651008	<s> beroun
-3.826739	<s> bez
-4.651008	<s> bezdružice
-4.651008	<s> bezděková
-3.826739	<s> bezvadné
-3.083943	<s> bezvadný
-4.13941	<s> bečva
-4.651008	<s> bečvář
-4.651008	<s> biflerová
-4.651008	<s> blaubrová
-3.567817	<s> bohužel
-4.651008	<s> brejcha
-4.651008	<s> brotánek
-4.13941	<s> brožová
-3.197887	<s> brzo
-3.826739	<s> brzy
-3.156494	<s> bude
-2.750729	<s> budete
-4.651008	<s> budu
-4.651008	<s> buzková
-2.896857	<s> buď
-3.459679	<s> buďte
-3.567817	<s> bych
-4.13941	<s> byl
-3.826739	<s> byla
-4.651008	<s> bylo
-4.651008	<s> bystřický
-4.13941	<s> být
-4.651008	<s> celý
-3.697538	<s> cenu
-4.651008	<s> charalík
-2.942614	<s> chcete
-4.651008	<s> chci
-4.651008	<s> cheb
-4.13941	<s> choltice
-4.651008	<s> chomutov
-3.826739	<s> chtěl
-3.567817	<s> chtěla
-3.487367	<s> co
-4.651008	<s> copak
-4.651008	<s> cílová
-3.021796	<s> další
-4.651008	<s> dalším
-4.651008	<s> daneš
-4.651008	<s> datum
-4.13941	<s> dejte
-4.651008	<s> den
-2.234099	<s> deset
-4.651008	<s> desátého
-3.697538	<s> devadesát
-2.197887	<s> devatenáct
-4.13941	<s> devátého
-4.651008	<s> devítka
-2.18505	<s> devět
-2.107982	<s> dnes
-2.140982	<s> do
-4.13941	<s> dobrá
-4.651008	<s> dobré
-1.189713	<s> dobrý
-1.740005	<s> dobře
-4.651008	<s> docela
-4.651008	<s> dojedete
-3.826739	<s> dojezd
-4.651008	<s> doktor
-4.651008	<s> domažlice
-2.766523	<s> dopoledne
-4.651008	<s> dostál
-4.651008	<s> dovolal
-4.651008	<s> druhá
-3.697538	<s> druhé
-4.13941	<s> druhého
-4.651008	<s> dráhy
-4.651008	<s> drážní
-4.13941	<s> duchková
-4.651008	<s> dufková
-3.826739	<s> dva
-1.791347	<s> dvacet
-3.567817	<s> dvacátého
-2.193565	<s> dvanáct
-4.651008	<s> dvořáková
-4.13941	<s> dvě
-3.156494	<s> dvěstě
-4.13941	<s> dál
-4.13941	<s> déle
-1.720765	<s> děkuji
-4.651008	<s> děleno
-4.651008	<s> dětem
-3.826739	<s> děčín
-3.083943	<s> dříve
-4.651008	<s> dřívější
-3.118706	<s> eurocity
-3.697538	<s> expres
-3.118706	<s> fajn
-4.651008	<s> fakt
-4.651008	<s> fencl
-4.13941	<s> fiala
-4.651008	<s> flešerová
-4.651008	<s> františkovy
-4.13941	<s> gabrielová
-4.651008	<s> grubrová
-4.651008	<s> hajšmanová
-4.651008	<s> halederová
-3.021796	<s> haló
-4.651008	<s> hava
-4.651008	<s> havel
-4.651008	<s> hefnerová
-4.651008	<s> heleďte
-4.651008	<s> hlavní
-3.487367	<s> hned
-4.651008	<s> hodilo
-3.697538	<s> hodinu
-3.826739	<s> hodně
-4.651008	<s> holýšovem
-4.651008	<s> honmyková
-4.13941	<s> horažďovice
-4.13941	<s> horní
-4.651008	<s> horního
-4.651008	<s> horníková
-4.13941	<s> hotel
-4.651008	<s> hruška
-4.651008	<s> hřebačková
-4.651008	<s> hříbková
-3.243644	<s> i
-1.226611	<s> informace
-3.826739	<s> intercity
-3.243644	<s> jak
-2.585103	<s> jako
-4.651008	<s> jakpak
-3.567817	<s> jaký
-4.651008	<s> jakýpak
-4.651008	<s> jandová
-4.651008	<s> janečková
-4.651008	<s> janko
-4.651008	<s> janovice
-3.826739	<s> jasný
-3.197887	<s> jasně
-2.371812	<s> je
-2.525789	<s> jede
-4.651008	<s> jeden
-4.651008	<s> jedena
-2.189287	<s> jedenáct
-3.083943	<s> jedete
-4.651008	<s> jedině
-3.697538	<s> jedna
-4.651008	<s> jednak
-4.651008	<s> jedno
-4.651008	<s> jednu
-4.651008	<s> jel
-4.651008	<s> jelínková
-2.919133	<s> jenom
-4.13941	<s> jenže
-3.459679	<s> jestli
-3.487367	<s> jezdí
-2.735489	<s> ještě
-3.118706	<s> jinak
-4.651008	<s> jiná
-4.651008	<s> jiný
-4.651008	<s> jiroušek
-4.13941	<s> jistěže
-1.613556	<s> jo
-3.826739	<s> jsou
-3.294797	<s> jste
-2.111527	<s> já
-4.13941	<s> jé
-3.294797	<s> jéžiš
-4.13941	<s> jéžišmarjá
-4.651008	<s> jízdenka
-4.651008	<s> jízdenku
-4.651008	<s> kadaň
-4.13941	<s> kafka
-2.993767	<s> kam
-4.651008	<s> kampak
-4.651008	<s> kaštice
-2.750729	<s> každý
-3.826739	<s> kde
-3.051759	<s> kdy
-3.487367	<s> kdyby
-4.13941	<s> kdybych
-3.697538	<s> kdybyste
-2.942614	<s> kdypak
-2.993767	<s> když
-4.651008	<s> kešnerová
-4.651008	<s> kokožka
-4.651008	<s> kola
-2.692737	<s> kolem
-3.021796	<s> kolik
-3.826739	<s> kolikpak
-3.826739	<s> kolikátého
-4.651008	<s> kolomazníková
-4.13941	<s> konkrétně
-4.13941	<s> koukneme
-4.651008	<s> koza
-4.651008	<s> kořínková
-4.651008	<s> kožnerová
-4.651008	<s> krakonoš
-4.13941	<s> krejčí
-4.13941	<s> kromě
-4.13941	<s> krásný
-2.692737	<s> který
-4.13941	<s> kterýpak
-4.651008	<s> kubica
-4.13941	<s> kubičková
-4.13941	<s> kubíčková
-4.651008	<s> kulíšková
-4.651008	<s> kupují
-4.651008	<s> kvečeru
-4.13941	<s> května
-4.651008	<s> langová
-4.651008	<s> lankašová
-4.651008	<s> litoměřice
-4.13941	<s> ll
-4.651008	<s> louny
-4.651008	<s> lukešová
-4.651008	<s> láčka
-4.651008	<s> majer
-4.651008	<s> majzlíková
-4.651008	<s> malý
-4.651008	<s> manažer
-4.651008	<s> marburg
-4.651008	<s> marek
-4.651008	<s> mareš
-4.651008	<s> marešová
-4.13941	<s> maria
-4.651008	<s> mariánová
-4.13941	<s> mariánské
-4.651008	<s> martan
-4.651008	<s> martin
-4.651008	<s> martínková
-4.651008	<s> matějka
-4.651008	<s> maříková
-4.13941	<s> mašková
-4.651008	<s> metrem
-4.13941	<s> mezi
-4.651008	<s> mezinárodní
-3.118706	<s> mezitím
-4.651008	<s> milan
-4.651008	<s> milerová
-4.651008	<s> mimo
-4.651008	<s> minaříková
-4.651008	<s> mladotice
-3.294797	<s> mladá
-4.13941	<s> moc
-3.697538	<s> mockrát
-4.651008	<s> mohl
-3.826739	<s> mohla
-4.13941	<s> mohou
-3.083943	<s> moment
-4.651008	<s> most
-4.651008	<s> motorový
-4.651008	<s> musí
-4.13941	<s> musíte
-3.567817	<s> my
-4.651008	<s> myslím
-3.197887	<s> myslíte
-3.826739	<s> má
-3.294797	<s> mám
-4.651008	<s> máme
-3.567817	<s> máte
-4.651008	<s> míková
-4.651008	<s> místním
-4.651008	<s> místo
-4.13941	<s> mě
-4.13941	<s> mějte
-4.651008	<s> měl
-4.651008	<s> mění
-4.651008	<s> město
-4.651008	<s> měsíční
-2.799947	<s> může
-3.294797	<s> můžete
-3.697538	<s> můžu
-2.498917	<s> na
-4.13941	<s> nad
-1.33695	<s> nashledanou
-1.871551	<s> ne
-2.766523	<s> nebo
-4.13941	<s> nebude
-4.651008	<s> nebylo
-4.651008	<s> nechutná
-3.567817	<s> neděle
-3.118706	<s> nejbližší
-4.651008	<s> nejdříve
-3.459679	<s> nejede
-3.697538	<s> nejezdí
-4.651008	<s> nejlepší
-4.651008	<s> nejpozději
-4.651008	<s> nelekejte
-4.651008	<s> nemohu
-4.13941	<s> nemusí
-4.13941	<s> nemusíte
-2.334564	<s> nemáte
-1.729539	<s> není
-3.826739	<s> neplatí
-4.651008	<s> nepotřebujete
-4.651008	<s> neptám
-4.651008	<s> neradila
-4.651008	<s> nestaví
-4.13941	<s> nevadí
-4.13941	<s> nevím
-4.13941	<s> nevíte
-4.13941	<s> nezlobte
-3.487367	<s> nic
-1.32983	<s> no
-4.651008	<s> nohrpek
-3.243644	<s> normální
-4.651008	<s> normálně
-4.651008	<s> novák
-4.651008	<s> nováková
-4.651008	<s> nový
-2.629685	<s> nula
-4.651008	<s> nádraží
-4.651008	<s> náhradní
-4.651008	<s> následující
-3.826739	<s> nástupiště
-4.13941	<s> něco
-4.651008	<s> nějak
-4.13941	<s> nějaký
-3.197887	<s> někdy
-3.567817	<s> o
-3.567817	<s> oba
-4.651008	<s> obyčejná
-3.118706	<s> od
-3.697538	<s> odjíždí
-4.651008	<s> odjížděl
-3.826739	<s> odkud
-2.606822	<s> odpoledne
-4.13941	<s> odra
-4.13941	<s> odsud
-3.697538	<s> okolo
-3.826739	<s> okříšky
-4.13941	<s> olomouc
-4.651008	<s> omlenice
-3.459679	<s> on
-4.13941	<s> ona
-4.651008	<s> oni
-3.567817	<s> ono
-4.13941	<s> opět
-4.651008	<s> ortman
-1.988372	<s> osm
-4.13941	<s> osma
-3.697538	<s> osmdesát
-1.99923	<s> osmnáct
-4.651008	<s> osmého
-2.735489	<s> osobní
-4.13941	<s> osobním
-3.826739	<s> ostrava
-4.651008	<s> otázková
-4.651008	<s> ovšem
-2.967438	<s> padesát
-4.651008	<s> padesáti
-2.516645	<s> pak
-2.766523	<s> pane
-2.666408	<s> paní
-3.697538	<s> pardon
-4.651008	<s> parní
-4.651008	<s> paráda
-2.152564	<s> patnáct
-4.651008	<s> patnáctá
-4.13941	<s> pavlíková
-3.487367	<s> perfektní
-4.13941	<s> perfektně
-4.651008	<s> petra
-4.13941	<s> planá
-3.826739	<s> platí
-4.651008	<s> plná
-4.651008	<s> plné
-4.651008	<s> plný
-3.021796	<s> plzeň
-4.651008	<s> plzně
-2.896857	<s> po
-3.697538	<s> podle
-4.651008	<s> podvečer
-4.651008	<s> pojedeme
-3.567817	<s> pojedete
-4.651008	<s> pojedou
-4.651008	<s> pojedu
-4.651008	<s> pokud
-4.651008	<s> polovina
-4.651008	<s> polovinu
-3.697538	<s> poloviční
-3.567817	<s> pondělí
-3.487367	<s> poslední
-2.278809	<s> potom
-3.697538	<s> potřeboval
-4.13941	<s> potřebuju
-4.651008	<s> pozdě
-2.993767	<s> později
-4.13941	<s> pozdější
-4.13941	<s> počkat
-3.021796	<s> počkejte
-4.651008	<s> počínaje
-4.651008	<s> pořád
-4.651008	<s> pracovní
-3.118706	<s> praha
-4.651008	<s> prešová
-4.651008	<s> pro
-4.651008	<s> prosbu
-4.651008	<s> prostě
-1.289402	<s> prosím
-4.651008	<s> prozraďte
-3.156494	<s> první
-4.13941	<s> prvního
-4.651008	<s> právě
-3.459679	<s> pátek
-4.651008	<s> páté
-3.826739	<s> pátého
-4.13941	<s> pěkně
-2.782913	<s> pět
-3.459679	<s> pňovany
-3.826739	<s> před
-4.651008	<s> předměstí
